const float w0[] = {0.0009315123, -0.026882185, 0.014519225, -0.028926695, -0.11250295, 0.0022662424, -0.12661178, 0.15155552,
 0.13638517, 0.12444332, -0.06830397, -0.1474791, 0.007624209, 0.03653354, 0.11408142, -0.1379547, 0.015089614
 , -0.015148156, 0.05642494, -0.021030838, 0.004747904, -0.067798264, 0.068095155, 0.05945396, 0.0018337587, -0.034382567, -0.015945045,
  -0.016308688, 0.11885312, -0.10404355, 0.042538535, 0.037632145, -0.020503836, 0.07777844, 0.16315308, -0.167177, -0.043081332, -0.1799349,
   0.080027886, 0.08850415, 0.07082248, -0.041243825, -0.022838682, 0.023489669, 0.047122505, -0.034950547, 0.07893736, -0.15495715, 0.14845908,
    -0.020892747, 0.12790184, 0.0064353873, 0.008127288, 0.09328419, 0.13260606, -0.16870132, 0.090383925, 0.15992993, -0.1860326,
    -0.064655796, 0.031037072, 0.068073794, -0.073167145, -0.15268199, 0.062431645, 0.042109743, 0.06777985, -0.045281522, 0.014494561,
    -0.029197196, 0.08296213, 0.12937185, -0.114922635, -0.0005813604, -0.004051842, -0.12641475, 0.055425603, -0.0013879066, -0.038170114, 0.055109043, 0.081340194, -0.07147172, 0.090690866, 0.1117413, 0.05242875, -0.07239442, -0.07378345, -0.024270555, 0.056712948, 0.018716665, -0.036232453, -0.004923453, 0.17731439, -0.11520538, 0.09670417, 0.16778477, 0.061925113, -0.10507591, -0.085103534, -0.1126479, 0.045173466, 0.006453853, -0.17317927, -0.011165644, -0.04013157, 0.0790937, -0.1049688, -0.029806323, -0.0327942, -0.026929948, 0.023549423, -0.01535885, 0.06383145, -0.09030557, -0.09820675, 0.05628226, 0.07489071, -0.00964325, 0.03850026, 0.020193456, 0.022789521, 0.047789257, 0.0004389894, -0.07065599, 0.015601424, 0.07340824, 0.061705, -0.09394687, 0.038794246, -0.07435595, 0.06415497, -0.17858496, -0.13513519, 0.039028607, 0.053107157, 0.115438744, 0.07910154, -0.036350314, -0.14350253, -0.11179083, -0.06843537, -0.0063430844, -0.11277501, -0.086349875, -0.040690422, 0.089427784, 0.06581321, 0.09530638, -0.14840609, -0.071584895, -0.094874, -0.0867113, -0.070809886, 0.1294725, 0.054226004, -0.091592565, 0.13301277, -0.08638451, -0.14967069, -0.16600475, 0.057505056, 0.11463484, -0.07490359, 0.0555067, 0.0642473, 0.07198555, 0.090980396, 0.14675683, 0.017270144, 0.14135234, 0.028809106, 0.11251969, 0.07225512, -0.07360015, -0.08356696, -0.090599075, 0.12439471, -0.05247268, 0.10081842, 0.089695275, 0.02502443, 0.10023212, -0.050804075, 0.14843549, 0.05821279, -0.080825694, 0.04535312, -0.036315806, -0.07119818, 0.11116443, 0.15197349, 0.0019235271, -0.07972915, -0.10343215, -0.09834082, 0.00046835936, -0.08495833, -0.11837844, -0.010636633, 0.041530106, 0.05076884, 0.14721422, -0.110421285, -0.15467212, -0.092948504, -0.0854597, 0.061082415, 0.02819754, 0.010909015, -0.13322832, -0.11185405, -0.026120208, -0.036702782, 0.008154856, 0.06638984, -0.046502266, -0.14429973, -0.093692936, 0.045026354, -0.045960404, -0.0060829995, 0.038079403, -0.017117087, -0.051944017, 0.11889831, -0.0031037657, 0.17308608, 0.012006792, -0.04918592, 0.018942235, 0.15855739, 0.09958981, 0.13133113, -0.09435349, -0.0688644, -0.028519185, 0.0107624065, -0.08623022, 0.051539358, 0.053017974, -0.04497523, 0.044728145, -0.10810395, -0.12674141, 0.050524674, -0.033410765, 0.00047479838, -0.09218439, -0.1276555, 0.13649417, -0.1691809, 0.16156, 0.122416794, -0.104619354, -0.15534374, 0.03434574, -0.0512418, 0.041588448, -0.060224134, 0.09684902, -0.050361894, 0.1069044, -0.13393947, 0.15108071, -0.04394805, 0.07506284, -0.004688218, -0.027274266, 0.04126861, -0.04276111, 0.10951611, -0.011737778, 0.101607956, 0.113007106, 0.15567638, 0.09530686, 0.032548662, 0.09772253, -0.10832888, -0.03254745, 0.046267834, 0.093513474, 0.100084506, -0.09344624, 0.10362759, -0.07746473, 0.06809125, 0.004898914, -0.12984289, -0.11188, -0.09205779, -0.005397301, 0.06532863, 0.037415516, -0.0016844269, 0.0646494, 0.11586076, -0.049904775, -0.0377837, -0.0847448, -0.082911305, -0.05724633, 0.06502052, -0.1467136, 0.03653659, 0.020416873, 0.0723378, 0.026936188, -0.081936374, 0.071020335, 0.06575081, 0.109785214, -0.008352181, -0.05362711, -0.046257216, -0.047788538, -0.027335647, -0.06708005, 0.0042060497, -0.056528073, 0.17838809, -0.100811504, 0.058852438, -0.107210316, 0.095442265, -0.13266264, 0.03502442, -0.044821467, 0.039274078, -0.061296973, -0.08588267, 0.08141664, -0.13360216, 0.13894765, -0.010552374, 0.077442594, 0.00020047487, 0.0056610685, -0.044966716, -0.030988028, -0.108828, 0.09313109, 0.047042612, 0.039817836, -0.024320614, 0.09906434, 0.06856417, 0.0034286126, -0.081021234, 0.029736342, 0.040717956, -0.11348075, -0.10379651, -0.059792012, 0.05863512, -0.11306761, -0.08155154, 0.040391352, -0.09991898, -0.06930237, -0.011281397, -0.07641703, -0.11068857, -0.15000384, 0.055214047, 0.061054833, 0.013362612, 0.08074766, 0.040190957, 0.042929426, 0.014215862, 0.1015152, 0.09825644, -0.07859049, 0.081710406, -0.02524594, -0.08238983, 0.040211808, 0.0940725, -0.022865549, -0.06448553, 0.033968136, -0.0009922103, 0.1118077, -0.18093404, 0.057010636, 0.10228392, -0.11470951, -0.13196655, 0.019160287, 0.035437793, 0.09206984, -0.079453014, -0.081025764, -0.054977912, -0.10274101, 0.006013727, 0.08402094, -0.10268058, -0.13529372, -0.054527298, -0.05431449, 0.044917125, -0.010430426, 0.0898887, 0.0041912934, -0.09035452, 0.045166194, 0.021031132, 0.101115674, 0.06460485, 0.061874967, -0.13747671, -0.057218738, 0.10656172, -0.09058679, 0.06150747, -0.10214384, 0.092788644, -0.0531699, 0.05074627, 0.08185701, -0.009734106, 0.08937824, 0.026776752, -0.060090065, -0.11436813, 0.124373764, 0.06836131, -0.016866125, -0.03232764, -0.07613396, 0.12210261, -0.018703897, -0.046567764, 0.073287286, -0.05054585, -0.090769045, -0.11319309, -0.052229747, -0.04180292, 0.12217621, 0.029921966, 0.044365413, 0.14974308, 0.0064163674, 0.053047832, 0.017643144, -0.08707037, 0.06312573, 0.0015934272, -0.0949443, 0.027085682, -0.076026075, -0.12604256, 0.15570225, -0.1306257, -0.09386774, 0.051775742, 0.04004993, 0.04607932, 0.14118645, -0.021642635, -0.032061707, 0.027158303, 0.15646261, 0.017804718, 0.10881854, 0.08496287, -0.034763113, -0.10656988, -0.041944537, 0.039922837, 0.11776081, 0.0061938073, 0.12534152, 0.11635327, -0.016989, 0.12631385, 0.027533695, -0.051638722, 0.1411812, 0.07841625, -0.024402939, -0.14663862, -0.021238953, 0.0481862, 0.0513746, 0.09309275, -0.04467263, -0.081846155, 0.081113644, 0.14659995, 0.017164465, 0.112096235, -0.115349256, -0.112686135, 0.08274747, -0.030628707, 0.024703689, -0.066901885, 0.12040167, 0.10140792, 0.06535856, -0.048166562, -0.10503308, -0.04910481, 0.08037763, 0.020809084, 0.0416298, 0.149431, -0.08436545, 0.0953707, 0.03634291, 0.13106024, 0.025213934, -0.062004983, -0.12201026, -0.04223055, -0.009773469, -0.059335507, 0.04135405, -0.114499226, -0.020931322, 0.067149594, 0.12557775, 0.019921716, 0.025575494, 0.032005195, 0.16841826, 0.15472525, -0.018651426, -0.027908808, 0.09194615, -0.021955187, 0.015725672, -0.015393568, 0.1396818, -0.115631565, 0.14930366, 0.121204376, 0.08558755, -0.08811831, -0.1300058, -0.0843338, -0.114599735, 0.12163282, -0.08579256, -0.11577573, 0.04723199, -0.02370038, 0.16136838, 0.07084405, 0.005777818, -0.005847115, 0.090479515, 0.047981128, -0.0084660435, 0.13487425, 0.00018704348, -0.058314152, 0.09481192, -0.017275259, -0.004199991, -0.098044075, -0.093751125, -0.00993007, -0.08667819, 0.099662885, -0.057695393, 0.036214784, -0.00010825016, 0.03875256, -0.07242246, -0.0048361267, 0.069812454, -0.17151034, 0.15514322, -0.0966207, 0.08067306, -0.10129832, -0.13356435, -0.058069997, 0.011193117, 0.077374615, -0.05169356, -0.1026488, 0.049009297, 0.027138645, -0.065551564, -0.012806482, 0.057477683, 0.08362149, 0.016972171, -0.07353815, -0.009181232, 0.012855054, -0.09608475, 0.032274682, 0.113626726, -0.1396174, -0.083442755, 0.02917758, 0.05611734, -0.09629678, -0.09594612, -0.03902052, 0.02319058, 0.12788042, 0.08339301, 0.14823142, -0.12866738, -0.02198445, 0.02318356, -0.02247289, -0.028809803, -0.054539844, -0.1067418, -0.11369049, 0.12936719, 0.063350126, 0.10032763, 0.025900144, 0.041514054, 0.1597863, -0.06760969, 0.027479451, -0.14745015, 0.07329542, -0.046377636, 0.085710905, -0.054602016, -0.07752514, -0.04254075, 0.031237036, 0.031864353, 0.119233705, 0.09148864, -0.11681677, 0.1114235, 0.063828535, 0.048276342, 0.14753775, -0.06517182, 0.07813268, 0.13454376, 0.10105251, 0.1349089, 0.108805664, 0.06855874, -0.061315324, -0.096374266, -0.09477119, -0.07054112, -0.018998964, 0.07138885, -0.047790077, -0.08289257, 0.02757376, -0.024192464, 0.110586554, 0.07420489, -0.13075195, 0.04648935, -0.00054130726, 0.1031709, 0.033491377, 0.14220439, 0.021437952, -0.038532745, 0.055230353, 0.115688235, -0.118274815, 0.037375826, 0.0549766, 0.11591056, -0.0018879105, -0.09108602, -0.107671775, -0.10758757, 0.08925179, -0.07277397, -0.024720168, -0.045610853, 0.110745214, -0.07129916, -0.04898052, 0.06290052, 0.027502444, 0.124802865, -0.044785548, 0.07706554, 0.1655025, 0.040079806, 0.03870307, 0.06496483, 0.089163326, -0.046343166, 0.03202822, -0.020947516, -0.12974025, -0.003682268, 0.0331217, -0.020530077, -0.08612862, -0.09254029, 0.11783292, 0.060694087, -0.16671897, -0.09382008, -0.08552185, -0.06408722, -0.06570542, 0.06278358, -0.095402814, -0.083681926, 0.030422283, -0.061424308, 0.071807355, -0.11979397, 0.037298836, 0.1335723, -0.074610785, -0.0067912117, -3.7586637e-05, 0.0992166, -0.09434767, 0.0040306873, 0.027697064, 0.085235015, -0.01295629, 0.077633835, 0.1194821, -0.04179226, -0.09322827, -0.13150948, 0.006198159, 0.023967719, -0.028119193, -0.13342565, 0.12385598, 0.07637378, -0.08674077, -0.059031058, -0.07997621, -0.033950202, 0.0015555582, 0.025911856, -0.115018494, 0.009449064, 0.02477642, 0.11521116, -0.11176602, -0.08669353, -0.05847682, 0.03443566, 0.07747051, 0.0738594, -0.063011035, -0.04368328, 0.07292446, 0.14941512, 0.11827065, -0.048802346, 0.16005735, 0.047014523, -0.030063095, -0.109729595, -0.046296656, 0.059573468, 0.08738548, 0.09375237, -0.019535169, 0.031019714, -0.009596719, 0.03960397, 0.05019445, 0.07668935, 0.07783323, 0.066181086, 0.051809132, 0.078779824, 0.11386177, 0.07196538, 0.12173328, -0.11629773, -0.012063492, -0.15546119, -0.03940115, -0.08866176, 0.09674857, -0.010716329, 0.042507872, 0.005569466, 0.03862575, 0.0061864113, -0.007050854, -0.028135771, -0.0745656, 0.04433337, 0.13775809, 0.09763651, 0.15341553, -0.03888834, -0.12716794, -0.032036632, 0.029634245, 0.01580351, 0.019999312, -0.13266096, -0.0026712548, 0.1135496, -0.14224528, 0.014190737, 0.022636242, -0.1431895, 0.06718104, 0.12889396, 0.10882133, -0.08385875, -0.100483686, 0.12713148, 0.0051622237, 0.003668627, -0.056421343, -0.1087492, -0.08951683, 0.06922928, -0.12039442, -0.0722832, -0.09317736, -0.12625878, -0.013529652, 0.069811605, 0.11987029, -0.07057187, 0.055180755, -0.088921286, -0.10929317, -0.07798672, 0.078638695, 0.035682674, 0.026455928, -0.08867778, 0.053636793, -0.082953975, 0.14018805, -0.012776182, 0.13106428, 0.14613849, -0.07240319, -0.037000734, -0.086714506, -0.074940845, -0.09249596, -0.08343217, -0.04579136, 0.103325486, -0.11096717, -0.099072106, 0.11212769, 0.10078707, 0.16975856, 0.051185243, -0.0032082347, 0.09122709, -0.035246562, 0.09383333, -0.0101776365, -0.12581691, 0.079369195, 0.013922536, -0.10374627, 0.024906477, -0.11681775, 0.01928317, 0.00030220408, -0.007873782, 0.15656589, 0.083898716, -0.10046893, 0.047914613, 0.13243872, -0.14018224, 0.09546686, -0.11863827, -0.042296536, 0.15446852, 0.02396911, -0.0017570194, -0.019249532, 0.12613235, 0.11286509, 0.097862676, 0.049956705, 0.10792275, -0.05296999, -0.0023457056, 0.0625708, 0.060470592, 0.0024940732, -0.09234226, -0.050813485, -0.12183969, -0.025809819, -0.0026661477, 0.07474334, 0.080021426, -0.067853406, -0.04735498, -0.02888642, -0.017749397, -0.07628644, -0.014756749, -0.099752225, -0.17424884, -0.07293344, 0.089322306, -0.07375248, -0.13241321, -0.012984947, -0.013742349, -0.13498403, 0.16179366, -0.028319137, -0.08403317, -0.1616713, 0.14104713, 0.0075349743, 0.09525417, 0.13868958, -0.1447086, 0.020437106, -0.02411992, -0.05498565, 0.16922928, -0.08931602, 0.06859819, -0.018854206, -0.13261442, -0.07208706, 0.0966618, -0.08298011, 0.0006449202, -0.056903217, 0.012553209, 0.053508863, 0.14571328, -0.07031795, 0.004541405, -0.036151003, -0.100087866, -0.09129745, -0.07791441, 0.07822712, 0.04528681, 0.18316516, -0.0039258823, 0.063103296, -0.008821137, -0.059470743, 0.13936396, -0.035064265, -0.080812484, 0.04728158, -0.076374955, -0.04868364, 0.104253985, -0.113802515, -0.07629082, -0.04095924, -0.12862605, 0.067289166, -0.07391174, 0.09853289, -0.010896566, 0.10656882, 0.129625, 0.11489643, 0.08821297, 0.13262938, -0.08726725, -0.052843932, 0.11603415, 0.017448274, -0.09584123, -0.14042133, 0.06941504, 0.071693175, 0.025696624, 0.0037912296, -0.012397548, -0.00035216293, 0.01260783, -0.003977844, -0.19661318, 0.055511605, 0.006299716, 0.037239466, -0.022828238, 0.13553834, 0.046771776, 0.053511903, 0.018655892, -0.05355677, 0.13803001, 0.13083924, -0.03808824, -0.04223818, -0.03562676, -0.09704619, -0.006330182, 0.0473113, -0.030572888, -0.09364051, -0.12931289, 0.03891988, 0.02103971, 0.05372054, -0.027651787, -0.057936944, -0.108700834, 0.0494155, 0.08588251, 0.08904148, 0.10165836, 0.1192647, -0.051197782, 0.03409057, -0.09215384, -0.10228644, -0.089904875, -0.11043603, -0.06837971, -0.013936629, 0.02331487, -0.0513563, 0.050763123, 0.11386711, 0.04574463, 0.1204939, 0.15127815, -0.049042463, 0.058884487, -0.09875173, -0.06355311, -0.013125262, -0.108622596, -0.030368553, 0.087280415, 0.118790925, 0.085856676, 0.020791098, 0.12461554, 0.03162695, -0.024250854, -0.026389426, 0.16249634, -0.093565315, 0.115387216, -0.089464754, 0.051857416, -0.08923748, 0.11378315, -0.12244295, -0.12971197, -0.07610202, -0.08152479, 0.012977102, -0.04442279, 0.025564985, 0.033053197, -0.026748603, -0.10237107, 0.016147338, -0.14558226, -0.039435692, 0.077990636, 0.028968588, 0.14831509, -0.14578524, -0.09406066, -0.041654877, -0.04943623, 0.123565525, 0.02620958, -0.077451944, 0.012983748, 0.08720658, -0.10747818, -0.0880219, -0.18872187, -0.08852804, -0.031507522, -0.04410108, -0.060091224, -0.008358755, 0.042928055, -0.17607266, 0.053952966, 0.033983663, 0.0012589399, -0.06321844, -0.12230698, -0.011936356, 0.16368556, -0.0085192425, -0.17006634, -0.111855835, -0.052113988, -0.100535735, -0.022167068, 0.13023366, 0.081178986, 0.04085959, 0.11774379, -0.06611741, 0.0785535, -0.004034453, 0.04869973, -0.002736291, 0.10060098, 0.102141894, -0.047720984, -0.031806123, -0.09779187, -0.123124674, 0.118185475, 0.11583731, 0.108090945, -0.020602271, -0.069976635, -0.110136785, 0.048527613, 0.07959896, -0.1301745, -0.03901927, 0.15610911, 0.1588853, -0.123854384, -0.14182241, -0.06883439, 0.060052034, -0.1554666, 0.12404473, 0.11047878, -0.032706182, -0.094027676, -0.0060779285, 0.10956275, -0.022418229, -0.072238326, 0.015228364, 0.08721388, 0.0043840096, -0.076568305, -0.06022789, -0.15407854, 0.04661959, -0.0053655985, -0.00367958, -0.14940126, 0.07896623, -0.04909763, 0.04182238, 0.12428957, 0.07743475, 0.083249904, 0.06368868, -0.077725776, 0.043118026, 0.021985663, 0.16194852, -0.1238207, -0.016740913, 0.021203289, -0.10046546, -0.05209307, 0.07392314, -0.06460456, -0.09960095, 0.010469773, 0.1177501, -0.064464755, -0.015584008, -0.017612506, -0.02251172, -0.029856976, -0.063766964, -0.08453075, 0.108693436, -0.07221222, -0.038819056, -0.1638817, 0.09129589, -0.020922577, 0.064219184, -0.0128547475, 0.034939524, 0.070946224, 0.09288211, 0.039280165, 0.1100544, -0.12046454, 0.004530727, 0.032336533, -0.046772916, -0.048637237, -0.08230837, 0.047960807, -0.15362021, -0.053437322, 0.1096218, 0.10612995, -0.13142806, -0.014318553, -0.06942403, -0.06494222, 0.020828173, 0.104712404, -0.03306556, 0.106870115, -0.14636467, 0.10412593, -0.0843062, 0.1599386, 0.04904495, -0.103607744, 0.02410997, -0.09561896, -0.06717253, 0.05539298, 0.12789874, 0.093347125, 0.0036619962, -0.09920594, -0.13510256, 0.042904258, -0.12304576, 0.010836538, -0.045455188, 0.047325585, 0.10154373, -0.09774449, 0.1653681, 0.087643005, 0.07921431, 0.058837075, 0.061375488, 0.10565805, 0.11273556, 0.015595704, -0.18093446, 0.0327569, -0.08512859, -0.03592198, -0.011421015, -0.13388476, 0.012947555, -0.16122699, 0.012627487, 0.1523342, -0.051950112, -0.09964353, -0.024905412, 0.059923284, -0.07064073, 0.09247254, 0.15432636, -0.018031176, -0.014289308, 0.07086624, -0.06383285, 0.031576175, 0.02236491, 0.100079924, -0.07285595, 0.01219452, 0.10519599, 0.10630798, 0.12911354, 0.08457986, -0.018172206, -0.0440138, -0.13270532, -0.12853754, 0.16420045, -0.14093013, -0.032863617, -0.06782411, -0.040115226, -0.0010310804, 0.08144171, 0.14653178, -0.034478985, 0.07814974, -0.0554001, 0.025928002, -0.073701225, 0.016553905, 0.10301559, -0.04893421, -0.037489235, -0.12364345, -0.06717673, 0.03463973, -0.03202407, 0.13287576, -0.05354304, -0.07958557, 0.047257714, 0.11941791, -0.002894722, -0.10513372, -0.059790768, -0.13375364, 0.1101651, -0.08563341, -0.10691384, 0.0269421, 0.13764662, -0.038547263, 0.11744387, -0.022190195, -0.09190135, 0.01693229, -0.0075189825, 0.045069996, 0.07775325, 0.034739684, 0.115127034, -0.0005062309, 0.08430433, -0.017607067, -0.038252976, -0.022153603, -0.05915923, -0.011084007, 0.10209343, 0.1331805, -0.04478198, 0.018608317, -0.11928671, 0.04673487, -0.120472774, 0.121787906, -0.06389614, 0.019404164, -0.14405741, 0.047289997, -0.14104441, 0.1130981, 0.0653759, -0.050400555, -0.039438136, -0.055664595, 0.122558825, 0.029757809, 0.15587905, -0.12116403, 0.032278568, -0.044043113, -0.08609632, -0.12741922, 0.06692264, -0.029208604, 0.014376892, -0.024102192, -0.031194987, -0.08204419, -0.1617285, -0.03579058, -0.03676356, -0.14861554, 0.037629146, 0.06658256, 0.19135343, -0.029096968, -0.039300457, -0.025666103, -0.10375989, -0.04913724, 0.11384512, -0.00989792, -0.11966874, 0.065206654, -0.020638064, -0.119691364, 0.019050526, -0.0016147597, 0.06591269, -0.016861536, 0.092748836, -0.06257268, -0.08305956, -0.00041642663, 0.15430383, 0.11849309, 0.15485428, 0.07559374, 0.0932106, 0.08873097, -0.01073415, -0.08382839, 0.14938448, 0.06343354, -0.12013391, 0.13891077, -0.009613199, -0.053505603, -0.007562736, -0.03001446, 0.10395785, -0.09111874, 0.048982117, -0.03076435, -0.049978465, -0.04647859, -0.09922217, -0.0432255, -0.025245734, -0.009046803, 0.14278734, 0.108972535, -0.10280901, 0.12048265, 0.18625328, 0.09113529, 0.0046313195, -0.005320368, 0.095522024, 0.07226805, -0.06187424, 0.11120551, 0.166596, -0.10894475, 0.05168914, 0.031003864, -0.029084975, 0.10736198, -0.1347523, -0.027081491, -0.033214558, -0.009090035, -0.039442826, -0.11824649, -0.023576384, 0.0681497, -0.07145588, -0.016213125, -0.14398387, 0.0071083456, 0.07364209, 0.118311934, 0.14093041, -0.0071653775, -0.08695597, -0.096986815, -0.12956205, 0.069341235, 0.0007006474, 0.001169191, 0.12836398, 0.09674926, -0.10380183, 0.015489797, -0.082830064, -0.11542397, -0.12666073, 0.031082233, 0.1473673, 0.09262066, 0.12389471, 0.14964797, 0.1177292, -0.11576826, -0.14978926, -0.15163016, 0.028492875, -0.109985694, -0.07156333, -0.09240497, 0.10273909, -0.037761226, -0.041783478, 0.06241208, -0.08372956, -0.11232243, 0.08765167, 0.0264996, 0.065065295, -0.060586795, -0.104129724, -0.06872177, 0.041651938, 0.008763521, 0.031952135, 0.022051593, -0.13738988, 0.14516112, 0.069121696, 0.030491691, 0.08322247, -0.06895877, -0.14510643, -0.06389328, 0.023371482, -0.1236826, 0.05283295, -0.07444785, 0.0553977, 0.0063356524, 0.058338173, -0.06435039, 0.07247604, -0.11263165, 0.046474412, 0.008383484, 0.024399625, -0.018900715, -0.0728173, 0.019604253, 0.07551056, -0.07931191, -0.11999507, -0.04431427, 0.017854836, 0.010546213, 0.011665106, -0.073024735, -0.08377583, -0.074836366, -0.035124887, -0.0881997, 0.016772212, 0.044193957, -0.10830769, 0.07416027, 0.03251676, 0.12869449, -0.005762099, -0.07948149, -0.10242887, 0.024671273, -0.05543077, -0.08695314, 0.09727757, -0.0808624, 0.014114401, -0.102564536, -0.03907825, -0.044283845, 0.12171015, 0.11520947, -0.044187326, -0.034388397, 0.05529664, 0.13228655, -0.05819052, 0.14388795, -0.09434995, -0.02865066, 0.048941366, -0.10808629, 0.018716242, 0.03447006, -0.038106307, 0.071253486, 0.15936655, 0.016946405, 0.15883455, -0.011239764, 0.092981964, -0.061318934, 0.14694321, 0.08879564, -0.09240524, 0.0023525637, -0.12788457, 0.00362773, -0.10104654, 0.13415904, -0.11301879, 0.015357546, 0.05502088, 0.080793686, -0.087665275, 0.023576332, 0.06993374, 0.076375395, 0.063541755, -0.08619007, -0.031230455, 0.07580582, -0.14097115, 0.078865685, -0.050279517, 0.08728275, -0.084995255, 0.012819603, -0.15634182, -0.10493831, 0.08983998, 0.01768642, 0.044739425, 0.010369055, 0.036802124, 0.15603824, -0.003554087, 0.06037293, -0.12989402, 0.00077568536, -0.14132054, 0.061720222, -0.09108383, -0.1333301, -0.13504475, -0.09892324, 0.12035319, 0.064943746, 0.08085102, 0.09974912, -0.11899596, 0.033077992, 0.087295264, -0.01704075, -0.045185708, 0.08856594, 0.04459354, -0.0025080545, 0.013345364, 0.06987892, -0.076403245, 0.06685541, 0.06311512, 0.04539821, 0.09979178, -0.09003471, -0.0057259076, 0.15757209, -0.061113242, -0.07582167, -0.12335859, -0.10265623, 0.08640634, -0.11307229, -0.069858916, -0.0010115503, 0.039036725, 0.008861358, -0.16739793, -0.14255545, 0.079401694, 0.12504892, -0.09929104, -0.01970716, 0.024839731, -0.11098632, -0.13940252, -0.04739435, -0.09571925, 0.108471826, 0.14874575, 0.13128784, -0.08004519, 0.11178159, 0.045954295, -0.01425149, -0.16095783, -0.13161719, 0.03891961, -0.053843256, 0.031907942, -0.13246281, 0.03821334, -0.09086943, -0.09564116, 0.12630083, -0.06418417, -0.12862702, -0.10539981, 0.046577692, 0.124225415, -0.09396889, -0.07145824, -0.02265373, -0.025064804, -0.036515366, -0.117828384, -0.08056564, -0.05817213, -0.025752136, 0.005045572, 0.07284905, 0.14019872, 0.06887524, -0.05488405, -0.011954385, 0.032242145, 0.1307116, 0.07562531, -0.061122157, 0.09174759, -0.07438271, 0.11308529, 0.1481097, -0.033468354, 0.017931433, 0.09484259, -0.01057093, 0.111014545, -0.09497814, -0.014714031, -0.098702915, 0.0063448166, 0.08983471, 0.026156751, -0.07923388, -0.115342766, -0.09816296, 0.03942947, -0.070912994, 0.13012625, -0.0031036737, 0.17674038, -0.051717125, 0.046316046, 0.016684959, -0.073464684, 0.11943514, -0.10961622, 0.1531996, 0.00018597822, -0.16449317, -0.08944248, 0.07802701, -0.0022770083, -0.101428, -0.0628833, -0.08804818, 0.096945435, -0.021544918, 0.0918486, -0.0999223, -0.12327878, 0.11461639, -0.1396061, -0.03630494, 0.12993383, 0.08793094, 0.033211477, 0.09905793, -0.088247925, -0.058139354, -0.03670365, 0.101608194, 0.050023466, 0.09065618, 0.057678718, 0.14234447, 0.120529346, 0.0877048, -0.063070595, -0.11916037, -0.03744906, -0.045475543, 0.10049425, -0.08060572, 0.112646334, -0.0057368088, -0.06328336, 0.15967135, 0.10819133, 0.08955157, -0.057925906, -0.1271225, -0.057905365, 0.11401577, -0.024578406, 0.02112697, -0.07687452, 0.054373708, -0.022181856, -0.025524558, 0.029765343, 0.058746766, -0.13195096, 0.08780159, 0.11757915, 0.05968527, -0.07940851, 0.022263698, 0.058895387, -0.031245064, -0.012908258, 0.12512827, 0.09821613, 0.021016806, 0.0056180465, 0.16396637, -0.07972782, 0.13283907, -0.039392877, 0.08390662, -0.1135829, 0.09023961, -0.09843053, 0.0803691, -0.003395689, -0.103577174, 0.030177107, 0.06880242, 0.1136748, 0.08549319, 0.0020928995, 0.07985739, 0.0034070348, 0.054127444, 0.110154174, -0.019838873, 0.16700245, 0.1551297, -0.09885163, -0.05847007, 0.0897681, -0.077357024, -0.073604636, 0.028437259, -0.12734288, -0.06625368, -0.051791884, 0.020606188, -0.06480369, 0.056017574, 0.0045683016, -0.026265582, -0.03138606, -0.11321778, 0.11024819, -0.06909611, 0.048658594, -0.043709725, 0.059190083, -0.052317645, -0.06786137, 0.093426265, -0.009368683, 0.13018918, 0.059139516, -0.03914281, 0.1243557, -0.12770991, -0.009089059, -0.051616974, 0.07680368, 0.041299675, -0.0041651903, 0.021853764, 0.013676531, -0.10367303, -0.08185279, 0.023043206, -0.104850575, 0.09030558, 0.11042508, -0.14301594, 0.045438163, 0.08205425, 0.06401576, 0.092621274, -0.0801645, 0.051428415, -0.026480813, -0.071861595, 0.12551874, -0.16135873, -0.023187185, -0.09054342, -0.076728806, -0.047098726, -0.090251386, -0.043685656, 0.025800614, -0.10522756, -0.08598493, -0.076545954, -0.04041797, 0.15779705, -0.035614382, 0.09107264, -0.02379714, 0.042893857, 0.115948774, 0.0077676508, 0.01551395, 0.124468185, -0.03384905, 0.11995836, 0.0032414987, -0.05134633, -0.049724035, -0.08515155, -0.13462031, 0.033864457, -0.078230776, 0.0106003275, -0.095537975, -0.083753325, 0.050294403, -0.03970341, 0.12882136, -0.148149, 0.010421101, -0.0627399, 0.068845145, -0.114368156, 0.03378249, -0.09076359, -0.1567692, 0.051599886, -0.09809126, 0.0026404469, 0.039431963, 0.11815944, -0.12861489, 0.0029121556, -0.04139458, 0.09318044, 0.073598884, -0.13539399, -0.013662164, -0.0679421, -0.08542698, -0.10706328, 0.0020407175, 0.07239254, -0.044454098, -0.037499607, -0.101860926, 0.115422525, 0.03253116, -0.12334942, 0.059328217, -0.0073492853, -0.005115036, 0.054801814, 0.013150863, 0.087518156, -0.086076245, 0.051097356, -0.10576345, -0.06250911, 0.00035911248, 0.13439687, 0.11783644, -0.2161908, -0.05426938, -0.12000532, -0.119243026, -0.10901872, 0.11030546, 0.095854394, 0.07280137, 0.12791902, 0.09124191, 0.08245341, -0.16495202, 0.08932716, -0.011896192, -0.059748165, -0.04128961, 0.06621882, -0.038831055, 0.09819152, 0.12348247, 0.12138924, -0.027386345, -0.019377718, -0.18774645, 0.12891288, 0.058311578, -0.12751931, -0.07811692, 0.13712807, 0.054423746, 0.098652504, -0.07667442, -0.021719096, 0.078128636, -0.027122136, -0.09993336, 0.03854428, 0.061730087, -0.021187006, -0.09098776, -0.13225299, 0.05349722, -0.13716416, 0.02906639, 0.08945009, 0.09544468, -0.14573634, 0.04382086, 0.0040916754, 0.116490066, -0.090145595, -0.028689664, -0.06432319, 0.13818295, -0.11773739, 0.09425049, -0.10692689, 0.12180557, 0.11877202, -0.13817994, 0.06343688, -0.09478422, -0.049171437, 0.059733693, 0.14492452, -0.025901882, -0.08035026, 0.05277696, -0.046485577, -0.06237552, 0.124980405, 0.11164169, -0.025072599, 0.12764457, 0.11616896, 0.097055234, 0.08111914, -0.08883565, -0.07353196, 0.028204113, 0.057822414, 0.046383023, 0.061972413, -0.02208492, 0.06881137, 0.028133688, 0.020832215, 0.00330378, -0.12236338, -0.11162804, 0.17772976, -0.024845112, -0.028370874, -0.044918183, -0.08502882, -0.06234021, -0.1251703, 0.12500973, 0.1286215, -0.0025239645, -0.0046302453, 0.049461655, 0.12912564, 0.07258826, 0.12922288, 0.11764783, 0.086489305, -0.08897789, 0.017000867, -0.031354334, -0.023926219, -0.07185463, 0.05701007, -0.020102734, -0.081818126, -0.12271515, -0.053221576, 0.12335466, -0.13449329, -0.10570695, -0.061293438, -0.018961832, 0.078886874, 0.16347978, -0.08287814, -0.12553915, -0.117261656, 0.12753256, 0.09762873, 0.06955754, -0.06345241, 0.0146250175, 0.009358944, -0.05440076, -0.06040268, 0.049040012, -0.08879735, 0.13067241, 0.040449515, -0.10948423, -0.0663286, 0.08825223, -0.06995649, -0.100765824, -0.09982627, 0.14003898, -0.0696154, -0.08022647, 0.09061279, -0.107271455, 0.089967385, 0.123968355, 0.04275793, -0.023010777, 0.028760443, -0.077533856, 0.03764193, 0.028543811, -0.027060427, 0.12274404, 0.18010625, -0.04764148, 0.072402954, -0.002055455, 0.06213698, -0.050793156, -0.10789095, -0.09946466, -0.039035726, -0.072976604, 0.06973265, -0.05313545, -0.017149497, -0.16246542, 0.053919766, -0.15722494, -0.0709289, 0.100761086, 0.014319992, 0.058391854, 0.01761138, 0.032749727, -0.06499066, 0.12157654, 0.044167377, -0.00012853551, 0.11715413, -0.15531632, -0.12711865, 0.051478136, -0.023356142, 0.00039130746, -0.012955529, 0.15325691, -0.085033365, 0.004199675, -0.014923595, -0.045912907, 0.1310819, 0.0624607, -0.09513574, 0.080215715, -0.09948326, -0.12069449, -0.008384189, -0.1050363, 0.12014951, 0.011724844, 0.042091634, -0.051888403, 0.062397942, -0.018758984, 0.10566478, 0.09584578, -0.0077591455, 0.08809759, -0.14082253, 0.085502975, 0.1134128, 0.005828053, -0.033722945, 0.06738511, 0.106213205, 0.043017182, -0.03965573, 0.016090538, 0.0049378546, -0.1336236, -0.10473363, -0.04423722, 0.070213124, -0.09218834, -0.08455554, -0.02287896, -0.1561479, -0.01568987, 0.11250682, 0.11210897, -0.09574757, 0.10809419, 0.06331581, 0.10399864, -0.08610204, -0.07439251, -0.043561876, -0.036980517, -0.13944592, 0.2451294, 0.08067681, -0.053316128, -0.09271221, 0.023306647, 0.08193628, 0.021482458, -0.09888795, 0.037231445, 0.11315965, -0.0153973475, -0.022748083, 0.015691409, -0.105213106, -0.031192297, -0.03915811, 0.105761655, -0.059486046, -0.02581435, -0.12358803, 0.10201792, -0.14625587, -0.09999999, -0.04936367, -0.108211935, 0.05353617, 0.08881905, 0.012323331, 0.058000833, 0.026169132, 0.10399506, 0.019659992, -0.04772446, -0.13471812, -0.09472996, 0.15471578, 0.051621728, -0.068950996, 0.0018705613, 0.059141956, -0.10191066, -0.048349373, 0.0018416145, -0.036175013, 0.03205991, 0.0798268, -0.03471708, 0.1160577, -0.04406666, 0.09173223, 0.010430343, 0.04505938, -0.13004339, 0.033065043, 0.04611653, 0.05001625, -0.041184705, 0.034683034, 0.04680835, -0.122417964, -0.122024536, 0.14556922, 0.13933676, -0.09592408, -0.16739933, 0.041532997, -0.17061272, 0.083899654, 0.13933913, -0.05885395, 0.09204999, -0.11312183, 0.09815623, 0.029626358, -0.021153847, 0.11486933, -0.048495073, -0.040661436, 0.12322869, -0.14167523, -0.10159837, -0.044472333, -0.02649056, -0.12994887, -0.054326817, 0.06430012, 0.0318056, -0.119133316, -0.032831237, 0.13282642, 0.101286486, -0.03295252, -0.0694013, 0.03465639, 0.112059236, -0.104016356, 0.10535281, -0.09724758, -0.11062573, 0.122634694, 0.043425776, 0.0024904856, -0.17554714, -0.006674899, 0.14616807, 0.13058597, -0.097309336, -0.15078817, -0.052300576, 0.16191906, 0.057784364, 0.07846476, 0.124909885, 0.014252177, -0.07564777, -0.124900304, 0.09185165, -0.04266869, -0.10486998, 0.08106533, 0.040246528, -0.03733648, 0.10239628, -0.042143103, -0.0037841683, 0.0088927215, 0.048418805, -0.09989771, 0.07567017, 0.015768303, 0.10712155, 0.01991012, -0.045876883, -0.115152165, -0.06755428, -0.110869505, -0.042524476, 0.04362353, -0.09702452, 0.027406976, -0.006503051, 0.023510564, -0.12827161, 0.105874725, -0.053082556, 0.027427245, 0.12090912, 0.043177135, -0.13138701, -0.03918346, -0.10815018, 0.059929367, 0.063329004, 0.10952656, 0.04974932, 0.08784125, 0.08134952, 0.0051654982, -0.034815133, 0.088306434, -0.12330183, 0.071844354, -0.16988954, 0.014540726, -0.03824777, 0.08817615, 0.07295968, -0.033840023, -0.088162005, 0.08200836, 0.006764252, -0.008335557, -0.056240954, 0.08795579, 0.0123368995, -9.68709e-05, 0.08065438, -0.026310898, 0.13990083, -0.014185005, -0.068686925, 0.08382472, 0.1190767, 0.019204168, -0.0045394474, -0.031245682, 0.13610812, 0.034461346, 0.13560227, 0.09040134, 0.0573053, 0.01295703, -0.014426212, 0.117095485, -0.03218048, -0.07209351, 0.058142293, 0.07237869, 0.066131085, -0.12794212, 0.019210013, 0.039968863, 0.08795206, -0.0006662752, 0.0073276055, 0.11577183, 0.1099204, -0.025043318, 0.05504348, -0.10368676, 0.0387681, -0.01809735, -0.112310156, -0.0074630976, -0.009134003, 0.09711546, -0.08847757, -0.050342914, 0.090185896, -0.07523524, 0.03388991, 0.13728818, -0.045664504, -0.025809148, 0.12485747, -0.069987796, -0.124257006, 0.02703057, -0.1135399, -0.06402233, -0.058695182, 0.051971387, -0.021692203, -0.083258756, 0.04208985, 0.0040136008, 0.083241105, 0.0035563097, 0.029297188, 0.13058807, -0.003008772, -0.0041180877, -0.092386425, -0.07353574, 0.060134303, 0.08105939, -0.049588967, 0.011247643, -0.13501346, 0.017325666, 0.03778342, -0.07746213, -0.0526707, 0.025711127, -0.047500588, -0.11102982, 0.05366285, -0.05329012, -0.095637836, -0.05673252, 0.09645016, -0.10629598, 0.028745076, 0.11646872, 0.033199746, -0.012127576, 0.08658826, -0.042132203, 0.08934292, 0.03392408, -0.01796016, -0.07574882, -0.057104047, 0.036791008, -0.06937898, -0.11837258, 0.038963456, 0.13624679, 0.010404433, -0.108748786, -0.13434443, 0.02281306, -0.080991775, 0.04288481, -0.07194887, 0.042266004, -0.09251766, -0.10310958, 0.16869454, -0.049497314, -0.06284235, 0.0377637, -0.046228115, -0.03347155, -0.14611827, 0.090684384, 0.025512269, -0.015345884, -0.08249977, 0.05760969, -0.01196105, 0.06824686, -0.10512015, 0.016599482, -0.025037514, -0.089275025, 0.08414226, -0.03876691, -0.044332705, 0.052501347, -0.16287434, 0.030075891, -0.122403406, 0.167273, 0.12284249, 0.030874018, 0.09659472, -0.0013517428, 0.014093888, 0.06607069, 0.008803896, -0.0120446645, -0.07106769, -0.074689396, -0.17210352, -0.123750545, 0.13247836, 0.10522651, -0.085216455, -0.14737864, 0.09995959, 0.021027243, 0.086789, 0.04249125, -0.13719803, -0.1389298, 0.091952614, 0.07763766, -0.019460246, 0.022748284, -0.0150453625, 0.049285084, -0.10345506, -0.044262376, -0.047945432, 0.13043141, -0.13167666, 0.003364966, 0.01574647, -0.04096949, 0.010327586, -0.10038958, -0.110776916, -0.012490357, -0.17594475, 0.07241257, 0.16077328, 0.106138885, -0.057923112, -0.060328465, 0.0154986, 0.12420691, 0.09056653, -0.0062961634, 0.066719405, 0.029560866, 0.113981314, 0.0046919906, 0.15141298, 0.07596046, -0.044924676, 0.03184833, 0.060718726, 0.05201749, -0.05758673, -0.1358971, -0.10330295, 0.07479473, 0.010725341, 0.09418553, 0.08154399, 0.113215536, 0.037228245, -0.13994873, 0.14220203, 0.08527208, -0.07416823, -0.10862396, -0.062678635, -0.07244592, 0.043740883, -0.065226056, -0.061410464, -0.04379407, -0.042846467, -0.0905934, -0.06496091, 0.05693195, 0.034331188, 0.12763746, -0.049588792, 0.09286156, 0.03801228, -0.060992513, -0.00879387, 0.0005612292, -0.12972471, -0.04707169, -0.066792995, 0.13895676, 0.015929759, 0.091530725, -0.1338369, -0.078439586, -0.074692756, -0.0131850885, 0.025420727, 0.057104975, 0.13251776, -0.07819174, -0.10781039, 0.0048743747, -0.0407449, -0.05475608, 0.029212523, 0.051174242, -0.07311669, -0.044223715, -0.01134556, -0.04940249, -0.10172405, -0.13933666, 0.089976706, -0.025028883, 0.039597936, 0.041843046, -0.081972234, -0.0035450228, 0.04176046, 0.13733467, 0.03367947, 0.08220266, 0.098039374, -0.053862296, 0.098764345, -0.07922528, 0.13537286, -0.049118508, -0.10020639, -0.11174012, -0.1260709, -0.04353997, 0.07850734, -0.0192073, -0.022712657, 0.054302216, 0.10806046, 0.1024548, 0.057820022, -0.05843008, 0.021790555, 0.123168185, -0.0062321643, -0.08375128, -0.018239528, 0.05326661, -0.055039153, 0.12293102, -0.019697519, -0.051770523, 0.03753829, 0.11703138, 0.005161899, 0.14746384, 0.11771358, 0.0958138, 0.14193437, -0.0836523, 0.03790601, -0.03278254, -0.04905717, 0.06002373, 0.13602799, -0.027686514, 0.032166142, 0.13743958, 0.05227197, -0.065991856, -0.053213626, 0.08569101, 0.0055793873, 0.0112813935, -0.013163854, 0.061272148, -0.05915943, 0.011051637, -0.08198036, 0.0037249266, -0.13817737, -0.084119245, -0.017177988, -0.1417456, -0.059674844, -0.09665736, 0.0030840295, 0.13488314, -0.11353955, 0.09731277, -0.017565992, -0.045372203, 0.10771334, 0.089387916, 0.018884417, 0.08625621, 0.08759855, 0.11414399, -0.14126322, 0.015384814, 0.13802913, -0.06194092, 0.13301185, -0.10788053, -0.053378884, 0.04909931, 0.0007954094, -0.12801458, -0.14880648, -0.09144219, 0.0050983676, -0.059010133, 0.12592386, -0.06400903, -0.12010505, -0.1217986, -0.12391573, -0.016394643, 0.025880855, 0.11268466, 0.09809641, 0.022642393, -0.10449212, -0.02037027, -0.009589451, -0.07853807, 0.108857244, 0.005045316, 0.0042931545, -0.08973765, 0.15212037, 0.10171925, 0.10418801, 0.06527435, 0.03252282, 0.04070914, -0.0061323815, -0.0009748051, -0.13476895, 0.028311474, -0.114216164, -0.053440668, 0.061962873, -0.08281228, -0.075359546, 0.082774445, 0.06858172, -0.1093128, -0.052935056, 0.11827908, -0.029233342, -0.13202778, -0.0525803, 0.0151287485, -0.05782105, 0.08578547, -0.09678118, 0.045636572, 0.04009004, 0.13408013, -0.11733363, 0.04578855, -0.04678599, -0.019507492, 0.009402432, 0.09167366, 0.08453372, 0.09138275, 0.027990129, -0.0928566, -0.07795942, -0.057788573, 0.07042667, 0.08688326, -0.00033261, -0.028438566, -0.08607923, -0.07097038, 0.08827889, -0.048613712, 0.03897253, -0.07930227, 0.080144696, -0.04965845, 0.059656877, -0.047027748, 0.040053573, -0.03037508, 0.042465042, -0.06234118, 0.04745833, 0.0888798, 0.035052348, 0.044731244, 0.094924666, -0.003016359, 0.08458846, 0.04236171, -0.027943654, -0.10204647, 0.16746467, -0.06935121, 0.0944606, -0.050103553, -0.06229624, -0.02002257, -0.022823427, -0.03459699, -0.07053451, 0.022614347, -0.012753099, -0.042732816, -0.025242161, -0.0041481047, 0.0060911523, 0.0054353126, -0.011229818, 0.05204355, 0.04903239, 0.12925297, -0.026846884, 0.019180603, 0.06183041, 0.028188964, -0.18202962, -0.010183735, 0.0011071059, 0.11211651, 0.08981502, -0.007022761, 0.053454734, -0.15502828, 0.016975466, 0.054008015, -0.107471876, -0.0027608639, -0.060839057, -0.1904948, 0.12939268, -0.11237699, 0.039174613, -0.10455772, -0.0065563703, 0.08024275, -0.016275954, 0.096477956, 0.031121446, 0.029503072, -0.03208976, -0.05337464, 0.12644227, -0.0921711, 0.0058643306, -0.04966038, 0.047145747, -0.11362104, 0.022798248, 0.08519871, 0.067828715, -0.0332115, 0.061200753, -0.05147871, 0.081547, 0.11184021, -0.09078482, -0.114225, -0.030262237, 0.13708924, 0.08959247, 0.054421004, 0.04866415, 0.0059299953, 0.058646828, -0.14355744, -0.0050639226, -0.017818676, -0.10063467, 0.056131702, 0.042578798, 0.11579312, 0.06007641, -0.003608071, 0.041627035, 0.1311544, 0.10444206, 0.03429372, 0.0024298162, -0.10082669, 0.012382561, -0.030206328, -0.089072384, -0.047365345, 0.044252586, -0.035628844, 0.00916862, -0.18512702, 0.03780048, -0.0029861305, -0.09188217, -0.08538761, -0.076059245, -0.0077197812, 0.120804764, 0.14019756, -0.05251551, -0.02952754, -0.12699968, -0.1288915, -0.050324135, -0.02140296, 0.06641422, 0.16138853, -0.0960597, -0.019911453, -0.1073991, -0.047672134, 0.16704564, 0.045854386, -0.012889915, -0.018703181, -0.03752787, -0.1609615, 0.07245104, -0.064194344, -0.10330499, -0.019181112, -0.044120118, -0.027040983, -0.0637396, -0.07108097, 0.091996744, -0.042903718, -0.095658734, -0.054315712, -0.0052318797, -0.040961202, -0.09016382, 0.12693879, -0.1415809, 0.016008353, -0.0143375145, 0.01021843, 0.006122224, 0.05042615, 0.13001513, 0.11518016, 0.104934156, 0.08760851, -0.037330184, -0.079455286, 0.12832132, -0.06714561, 0.07296269, -0.011378221, -0.12532677, 0.09976584, -0.02304793, 0.014435337, 0.10602988, 0.07321719, 0.08925641, 0.023630256, -0.114384405, 0.12694256, 0.030192425, -0.012460086, 0.036252357, -0.015489243, 0.0028052235, -0.035670646, 0.030016007, -0.018164854, 0.02491902, 0.00054899114, -0.07662804, 0.023882322, 0.09556358, 0.030432936, -0.024134725, 0.005515016, 0.094275765, -0.10492864, -0.059319366, -0.0035723587, 0.016986813, -0.09774822, -0.013281785, -0.09583437, 0.07533858, 0.072607525, -0.07162311, -0.12822607, 0.13613571, -0.07639037, -0.023395138, -0.15213622, -0.09120579, 0.0818679, 0.14698811, 0.08323989, 0.0111639025, 0.01768759, 0.057387296, -0.06750649, -0.04746695, 0.033855174, -0.12988402, -0.039631918, -0.011695505, 0.12201635, 0.058242775, 0.14256412, 0.13957778, -0.021731218, -0.012528774, 0.06602677, 0.006720621, 0.009177829, -0.07203103, 0.019845525, 0.050106574, -0.09819483, -0.1001607, 0.044174626, -0.032598924, 0.08707148, -0.028158741, 0.030285358, -0.054777455, -0.16369827, -0.103165716, -0.13176821, 0.13460466, 0.042295545, -0.114743054, 0.07661732, -0.074500725, 0.10657218, 0.064190514, 0.0016307393, -0.032471593, -0.066303164, -0.026853178, 0.050315484, 0.088716276, 0.12729825, 0.100416884, 0.082792655, 0.024904912, -0.09817349, 0.040160026, -0.03802004, -0.08804659, 0.10934962, -0.10058589, 0.08626792, 0.007712426, 0.00708753, -0.04618652, 0.04163432, 0.01941702, 0.07750495, 0.10924974, -0.06502307, -0.15256064, -0.04613759, 0.118091434, -0.00013489448, -0.045930576, 0.057577882, 0.14062014, -0.06770188, 0.0340839, 0.049897533, 0.067556575, 0.027326746, 0.009540373, 0.1162803, 0.018926788, -0.0049980003, 0.0028135004, -0.016987178, -0.09724426, -0.0707787, 0.084727705, -0.07880823, -0.04506145, -0.20481414, 0.1260891, 0.14337276, -0.037004128, 0.0012765595, 0.09233513, -0.10305844, 0.045968704, 0.00018002163, 0.1281766, 0.10733027, -0.088142484, -0.14090122, 0.044551782, -0.07527434, -0.16202766, 0.049727615, 0.013595793, -0.101857804, -0.042815164, 0.01682764, 0.031206563, -0.017536284, -0.10664492, -0.10749326, -0.18887122, -0.023753371, 0.13589461, 0.019376706, -0.11985942, -0.053419724, 0.04654987, 0.035704378, 0.014444831, -0.04461219, -0.09157637, 0.0884023, -0.06951133, 0.058710556, 0.09925709, 0.0896344, -0.089869685, 0.06037414, 0.01565372, -0.05534055, 0.09204979, -0.06913736, 0.044973556, -0.027632385, 0.08719067, 0.040371194, 0.05854085, 0.10594848, 0.00810159, -0.12803535, 0.08161405, -0.07592109, -0.09969207, -0.08364911, 0.1138248, -0.05045765, 0.010390682, 0.059574164, -0.104981884, -0.014631705, -0.11594093, 0.09324369, -0.051820353, 0.12776054, 0.052397884, 0.08642188, 0.052859046, -0.14145869, -0.0029412755, 0.09709953, -0.0985469, -0.09472513, 0.07358301, 0.082389615, 0.12914626, 0.033587374, 0.034628488, 0.031823203, -0.09546396, 0.06201457, 0.0024869593, 0.06250615, -0.07284803, -0.033402, 0.046600305, -0.0017059852, -0.09708088, -0.053570718, 0.05872896, -0.04715319, 0.013419701, -0.09359878, 0.06284849, -0.021479493, 0.008493114, -0.09524155, 0.02889064, 0.05499951, 0.048905764, 0.076432556, -0.05332106, -0.080903426, -0.08826076, 0.048571613, 0.030647147, 0.017194713, -0.13899839, -0.08212609, 0.118456975, -0.07149598, 0.053394947, -0.05776017, 0.10446068, -0.15709491, -0.016815295, 0.039638735, -0.050410986, -0.06601673, 0.16797158, -0.037540678, 0.010396368, 0.06268976, 0.13183664, 0.0044054845, 0.03150816, -0.12227045, -0.12020813, 0.119254135, 0.016055573, -0.017199034, -0.09662853, -0.1124447, 0.051538218, 0.049306974, 0.033354085, -0.08241289, 0.09457308, -0.017171144, 0.1576877, -0.023829482, -0.06271826, 0.051820353, -0.056816913, 0.008597273, -0.039852865, -0.017575199, 0.10380445, 0.01618801, 0.05144473, -0.10500495, 0.06259076, 0.20004125, -0.0037913257, -0.11855855, 0.06424654, 0.03831076, 0.10189209, -0.04474346, -0.05211318, 0.14052022, -0.060617056, -0.047493134, 0.026516272, 0.12039606, 0.09847029, -0.03802153, -0.062772684, -0.048922785, 0.13383172, -0.12869179, 0.032642648, -0.027341131, -0.08136483, -0.023088021, 0.06743209, -0.03195182, 0.044174258, 0.009953258, -0.029511785, -0.052229676, -0.08545964, -0.14962903, 0.08909524, -0.07366231, 0.13371658, 0.13457352, -0.13109979, 0.031801805, -0.009684263, 0.15371211, 0.042639118, -0.16581166, -0.1279632, -0.01637444, 0.03527035, 0.09743034, 0.05482053, 0.08895744, 0.04355531, -0.025241937, -0.15944186, 0.04778067, -0.18315372, 0.032948956, -0.04967597, 0.021384774, -0.117446385, 0.12804656, -0.005878008, -0.0039491854, -0.12695344, 0.07142872, -0.122349866, -0.09364367, 0.15151499, 0.10491049, 0.03645916, -0.076926105, -0.022195758, 0.05314948, -0.001774271, -0.06905224, -0.019188628, 0.07864269, -0.003336631, 0.045171548, -0.054308474, -0.034155797, 0.12288419, -0.02573662, -0.03756422, -0.044236418, 0.08255224, -0.059904702, 0.14202501, 0.035198692, 0.001931708, -0.101795, 0.07385006, -0.025967766, -0.112572245, -0.10156493, 0.055871945, 0.06687955, 0.07251463, -0.11734636, -0.06720514, 0.077965565, -0.012878489, 0.09714839, -0.07213594, -0.0015438986, 0.03150269, -0.085078724, -0.049454685, -0.04539504, -0.03879824, 0.12270218, 0.082085505, -0.12320111, -0.08469628, -0.11220738, -0.032506064, 0.0042959666, 0.111409575, 0.04684001, 0.10388964, 0.124822795, -0.038999707, 0.089226976, 0.08866336, 0.040459312, -0.030464096, 0.14534914, 0.14583701, -0.034817513, -0.08364387, 0.08484516, 0.008207702, -0.12220477, -0.017464308, 0.1091502, 0.06664502, -0.12061219, 0.090161726, 0.11432138, 0.020577611, -0.004342235, 0.10728522, -0.0756053, 0.00026397544, 0.01970742, 0.08262617, 0.044091914, -0.015085246, 0.004923713, -0.08963741, -0.04868229, -0.071617186, 0.09185571, 0.059793584, 0.06894083, -0.1310219, -0.0035827723, -0.00036538453, 0.08955579, -0.08392905, 0.097757824, -0.119505316, 0.09470659, 0.12652034, -0.07823872, 0.091959395, 0.075147115, -0.07806109, -0.008762264, 0.053948414, -0.047550622, -0.13722917, -0.09097816, -0.065458, 0.1129642, 0.057570953, -0.10335766, 0.05868709, 0.11050983, -3.0020508e-05, 0.036123153, -0.018864112, -0.05687348, -0.032144222, -0.12068821, 0.020344645, -0.0064395745, 0.04097453, 0.026810747, 0.09901205, 0.10087114, -0.062255464, -0.021587897, 0.036735892, 0.12096455, 0.17833166, 0.051040113, 0.09607697, -0.13141432, -0.03253156, -0.042547416, -0.029339293, 0.05409427, -0.014156304, 0.12098787, -0.10526938, 0.039214976, 0.09738018, -0.069697216, -0.07288611, -0.044702936, 0.037893217, -0.13241588, -0.06296418, -0.06954665, -0.040110532, -0.05834465, 0.007911767, 0.12030987, 0.05334489, 0.036830377, 0.034042705, 0.12500642, 0.037014484, -0.089488, -0.099878885, 0.073869154, -0.11679933, -0.09658994, 0.17396683, -0.13373955, -0.13201144, -0.1428735, 0.032381598, 0.017370095, -0.071304284, -6.854297e-05, -0.1278784, 0.08916017, -0.062069267, 0.06336005, 0.06726737, 0.06185629, -0.0030359488, 0.08848824, -0.08309738, -0.05593638, -0.13708052, -0.07759255, 0.06418077, 0.1140455, -0.110686734, 0.1626748, 0.03303958, -0.1189319, 0.11618922, 0.06639263, -0.12370672, -0.048758037, 0.14257479, -0.07769694, -0.15956908, -0.02097598, -0.009939439, 0.099137306, -0.10589059, -0.016581334, 0.02792721, -0.061930932, -0.10940701, 0.10571671, -0.11699542, 0.08455191, 0.08580049, 0.114376135, 0.10283462, 0.06910867, 0.029884944, 0.03615471, -0.07123598, -0.12495135, 0.04192842, -0.11220337, -0.107357524, 0.14545004, -0.063039295, -0.08955217, -0.03311348, 0.14110164, -0.056421347, -0.019545859, -0.022538772, 0.1215086, 0.07576071, 0.11109549, -0.055413365, -0.06694283, -0.046828564, 0.048993092, -0.18722752, 0.14108925, 0.056791905, 0.049711555, 0.10346346, 0.10892078, 0.098974854, -0.10477601, 0.06590432, -0.1156065, 0.08570214, -0.07263877, 0.12832263, 0.108758464, 0.026581172, 0.058835372, -0.10809387, 0.0009852294, 0.030496033, 0.06521926, 0.12978928, 0.045474596, 0.14926872, -0.017727617, 0.045213234, -0.12599117, 0.07424249, -0.087698415, 0.011558819, -0.12698184, 0.04053154, 0.003471196, 0.080773495, -0.15399644, 0.10748806, -0.011334315, 0.08661065, 0.12529874, 0.13777752, -0.14642012, -0.04104568, 0.09381311, -0.06740315, -0.096218914, -0.095766865, -0.07813349, 0.09613717, 0.11108008, -0.111934416, -0.01470551, 0.0728132, -0.0720998, 0.0043858616, -0.04520079, -0.1425349, 0.043830153, -0.07188381, 0.14812072, 0.11503047, 0.081185624, -0.011613541, 0.047967765, -0.081091926, 0.03756142, -0.13539451, 0.03220994, 0.012030553, 0.018877584, -0.08845167, -0.036273353, 0.041545648, 0.12735306, -0.07514026, 0.05320757, 0.06413632, -0.03531167, 0.013757668, -0.075699165, -0.024998909, -0.12201191, -0.07084783, 0.05773857, 0.114523, 0.09859444, 0.044604607, 0.06154419, 0.10504832, 0.10219619, 0.071635745, 0.092388816, -0.059595324, -0.10962765, -0.07160634, 0.10792473, 0.06799737, -0.018360078, -0.12593219, 0.124758415, 0.06773617, -0.04491551, 0.0151402345, 0.012505085, 0.08676215, 0.011268476, 0.11292511, -0.0140901515, 0.012838116, 0.13403115, -0.053708427, 0.011116757, 0.015710426, 0.08643848, -0.03440052, 0.06636829, -0.11769017, 0.011600494, 0.028261887, -0.07140442, 0.057080064, -0.14849646, -0.025944086, -0.11376714, 0.08416166, -0.093149476, -0.07924109, -0.16509454, 0.093097456, 0.14860551, 0.096463904, -0.096413195, -0.019487932, 0.08657529, 0.03031711, 0.16903667, 0.16192457, 0.005850115, -0.07753345, -0.051668596, -0.14473358, -0.080030695, -0.08465319, -0.040649083, -0.08095525, 0.080080256, 0.003176773, -0.009318635, 0.039770044, 0.071213916, 0.1301686, -0.12796809, 0.054124605, -0.0104498295, 0.12418179, -0.040859506, 0.04718642, -0.072070085, -0.07183731, -0.03892636, -0.07641378, -0.022241058, 0.017065313, 0.026314296, 0.053760007, 0.02598475, 0.09770423, 0.07527518, -0.06382815, -0.08909448, -0.038227938, 0.030597785, 0.011958401, 0.11302613, 0.12451679, -0.011145255, 0.06237741, 0.08221597, 0.09607301, 0.013130008, -0.0764135, -0.05969339, 0.06616033, -0.037105355, 0.09589544, 0.13471608, 0.041355416, -0.03820328, -0.02868988, -0.14461026, 0.07168733, 0.053210746, 0.10717273, -0.1398016, 0.060807202, 0.018523442, 0.06729215, -0.11765264, -0.11970676, -0.13692398, -0.12314258, -0.00022724348, -0.028465072, -0.019983517, 0.101827, 0.017907707, -0.07387724, -0.0035873628, 0.012793384, 0.05524409, -0.104073726, -0.055375412, 0.012176274, 0.15856884, 0.07778792, -0.10902288, 0.08786658, -0.05956133, -0.039257396, -0.15078297, -0.018025441, -0.05007351, 0.00088986213, -0.17787276, -0.047838867, 0.044244602, -0.025057066, -0.01930807, -0.009751421, -0.0688237, 0.066660695, 0.1419084, -0.05251064, -0.140395, -0.12183536, 0.07963963, 0.043101486, -0.09307864, -0.106880054, -0.011882472, -0.052888747, -0.04379747, 0.0065387865, -0.0940234, -0.016379075, 0.025637565, 0.12747633, 0.06470783, 0.018170543, 0.046633292, 0.08891308, -0.08558082, -0.0027894585, -0.013216162, -0.08003762, -0.121758, -0.02848556, -0.084553465, -0.035739042, 0.07015725, -0.004455947, -0.048967317, -0.0949192, 0.04576332, 0.083552144, -0.117201395, -0.1044297, -0.110636644, -0.08202995, -0.024299681, 0.015968448, -0.031189468, -0.038966216, 0.07584585, -0.049883123, 0.026613124, -0.01757668, -0.023177322, -0.025521915, 0.052790485, -0.0042242683, -0.08848838, -0.048055492, 0.06367161, 0.006006889, -0.032382555, 0.027516294, 0.1519175, 0.114233844, -0.039307166, -0.026046863, -0.026142752, -0.016090257, 0.10801455, 0.104459606, 0.0002397466, 0.0074496707, -0.056204397, 0.049556755, -0.058129538, -0.1164787, -0.055156402, -0.09123066, -0.07864264, 0.13833317, 0.067032576, -0.078182384, 0.11582419, 0.02942203, -0.056532003, 0.12205861, -0.12533665, -0.044347167, -0.13109165, 0.10047286, 0.071225695, 0.039475217, 0.028057795, 0.010297724, -0.12268117, 0.05099666, -0.09843855, 0.02811894, 0.037715927, 0.11127982, -0.02651868, 0.009659248, 0.084266886, 0.15457295, 0.07540546, -0.13763389, -0.044178396, -0.011031565, 0.07999399, -0.18321972, 0.07817825, -0.0094141085, 0.13955303, -0.0776498, 0.16170143, -0.004084887, -0.13783456, -0.094178475, -0.09539336, -0.20725946, 0.03884057, 0.119924776, 0.06684054, -0.10236446, 0.112024635, -0.075504705, 0.034111414, 0.09152937, -0.104509026, -0.02665669, -0.05689862, -0.015271726, -0.07135395, -0.032958526, 0.08183902, -0.0024049305, 0.06267337, -0.08073177, -0.003686066, 0.04982315, 0.05530908, 0.122644626, 0.049676698, 0.14578886, -0.07218025, -0.0011718747, 0.07146029, 0.014867704, 0.13439474, 0.11083942, 0.013797485, -0.04112364, -0.058132954, 0.039688416, 0.07576614, -0.03263868, 0.040605325, 0.081762984, 0.02003935, 0.04666389, -0.15565926, -0.06342796, 0.11097644, 0.04816358, 0.028582474, 0.06810745, 0.008682276, -0.0979154, -0.028774807, 0.10561697, 0.062538885, 0.04103947, 0.08471686, -0.065345876, 0.16187634, -0.021480978, -0.09882166, -0.0041552843, 0.066513725, 0.10482193, -0.07620266, 0.04989356, -0.141158, 0.016751084, -0.031551093, 0.14389277, -0.020448994, 0.109426245, 0.009526269, 0.10621094, -0.14026262, 0.07847934, 0.13014138, -0.12759313, 0.06223211, 0.06513847, -0.14390948, 0.09018883, 0.0009410224, 0.007725253, 0.109885484, -0.09250549, -0.020264547, 0.0144414175, 0.030357067, -0.081424065, -0.091116615, -0.009177971, 0.0082301395, 0.03149464, 0.16384625, 0.036804445, -0.120483965, 0.044355925, 0.036465544, 0.02291467, -0.083206765, 0.0709512, -0.07187587, -0.071653485, -0.05239416, -0.07150067, 0.03458747, 0.088443674, 0.09355806, 0.11146932, 0.030392058, 0.0011918428, 0.0048522926, 0.110636495, -0.048464015, -0.036537934, 0.10357977, 0.09058865, 0.11477583, 0.037311107, -0.06422945, 0.08792005, -0.032730132, 0.18492466, 0.09390836, 0.03208833, -0.06706768, 0.07107147, 0.122680195, -0.081826694, -0.0030567085, 0.15935011, 0.13520958, -0.0050331317, 0.19406193, -0.12650666, 0.027864477, -0.046292085, -0.07052479, -0.028816152, 0.072532795, 0.040565707, 0.038388595, -0.07125431, -0.097025976, 0.04327208, -0.0054648374, -0.054757547, 0.12041481, 0.18188749, -0.12971807, -0.013925793, 0.11930094, 0.14666265, 0.0014669157, -0.08682138, -0.054699093, -0.0380858, -0.039924745, 0.09690088, 0.089898065, 0.0035401948, -0.04328246, 0.050365083, -0.12626831, 0.026123593, -0.11525345, -0.06635439, -0.11645109, -0.116182074, -0.028582351, -0.011452253, -0.10706886, 0.019548343, -0.14572868, 0.059882183, 0.08603484, -0.03582441, 0.020051273, 0.057186827, 0.12305531, -0.110465415, -0.12845834, -0.18233146, -0.12741035, -0.088248886, 0.15223639, -0.10899607, -0.021803198, 0.044326633, 0.06532022, 0.16620709, -0.03695555, 0.024911422, -0.07171161, -0.1987129, 0.029603697, 0.11803727, 0.15562919, 0.075689286, -0.060400963, -0.099868566, -0.028224029, -0.10219034, 0.059194252, -0.018456118, 0.091094054, 0.09146921, 0.06713539, -0.14258625, 0.07020301, 0.005649593, 0.07759247, -0.005164712, 0.047962833, 0.026583644, 0.077243425, 0.1291944, 0.037844505, -0.070461065, -0.027722226, 0.035319056, 0.09574089, -0.013021316, -0.020670975, 0.03452297, -0.07582543, 0.029150616, 0.09029003, 0.04004726, -0.048104767, -0.12639825, 0.04192652, -0.13768165, 0.007406356, -0.025220485, -0.1456684, -0.1882477, 0.018942183, 0.07493727, 0.028140519, 0.029243093, -0.14177005, -0.12586887, -0.025316074, 0.12606473, 0.011645266, -0.11285612, -0.04780386, 0.14154696, -0.020128777, -0.051079355, -0.011157071, -0.07702932, -0.071383566, 0.10896316, -0.030303665, -0.098990634, 0.11180475, -0.046687, 0.05593912, -0.021479743, -0.022994285, 0.09728742, -0.055914734, -0.13958277, -0.18901074, 0.088680334, 0.1437189, 0.027120598, -0.17531462, -0.013281046, 0.09264792, 0.1430674, -0.120312706, 0.0173569, -0.023753872, -0.103640914, -0.017147629, -0.08583101, 0.062602684, 0.057371788, -0.041295137, 0.0617143, 0.033538908, -0.03406755, 0.1486547, 0.11501086, 0.07856234, -0.08637085, -0.16032849, -0.002776998, 0.08405931, 0.043622095, 0.14288726, -0.023916641, 0.095574655, 0.14120181, 0.036707193, -0.074720435, -0.14873923, -0.018813906, -0.10006698, 0.12895831, 0.070709474, -0.026448756, 0.05695294, 0.08066508, 0.106929995, 0.113289125, -0.09540133, 0.115665056, 0.04216536, 0.14304939, -0.06409194, -0.016214348, -0.08480211, -0.005925715, 0.030202, -0.12900114, 0.019717557, 0.041238762, 0.03619062, 0.11952673, -0.054888077, 0.10357622, 0.18165587, -0.013045514, -0.028279932, 0.11295223, 0.026718905, -0.049491588, -0.10955164, -0.06412268, 0.17216437, -0.0641344, -0.14525305, -0.05092359, 0.03190614, -0.03138508, 0.105891645, 0.023215782, -0.05672103, 0.08259716, -0.092096284, -0.0767024, 0.074006505, -0.0334889, -0.11862679, -0.09147203, -0.12424544, 0.107487194, -0.0072609186, 0.012488681, -0.017783025, -0.09353294, -0.03427177, 0.13616021, -0.056383364, 0.022502806, 0.15543349, -0.100521386, -0.19257648, -0.0073717404, -0.010894453, 0.062238827, -0.18872294, 0.013094682, -5.8462694e-05, -2.9187813e-05, 0.023419045, -0.032997556, -0.051751137, -0.0937366, -0.030251527, -0.07108568, -0.06383585, 0.017245775, -0.09379082, 0.04679352, 0.09778038, 0.07813568, 0.008056074, 0.16700086, -0.03821888, 0.12354234, 0.045456905, -0.1590217, -0.025742037, 0.14181149, 0.08348576, -0.07734124, 0.14161742, 0.0669748, -0.08808135, -0.13071772, 0.009885529, 0.07783266, 0.07621443, 0.13449498, -0.0017002434, -0.04557262, -0.019800538, 0.15585402, -0.08160599, 0.11374225, -0.09263427, -0.00769717, 0.049963024, -0.020157298, -0.057653632, 0.04653401, -0.014643604, 0.05556976, -0.061043814, -0.07836078, -0.0694979, 0.083085775, -0.009171737, 0.031711824, 0.019345986, -0.029864453, -0.05731442, -0.07091816, -0.042357564, -0.083369784, 0.0062716934, -0.038426988, -0.06294564, -0.083102785, -0.0103970235, -0.028784417, -0.16777113, -0.07937868, -0.049796093, 0.008879455, 0.085502885, 0.18187109, 0.04216856, 0.0056684106, 0.102417916, -0.030039188, 0.026332485, 0.014224792, -0.013130443, -0.087219074, -0.06995168, -0.07700962, -0.009099657, -0.099569224, -0.121892184, -0.08929407, 0.07354933, 0.03188992, -0.13585375, 0.06516621, -0.06305373, -0.061141927, 0.030968955, 0.053350568, 0.11121276, -0.09354246, 0.026428824, 0.0389477, 0.04696499, 0.006132633, 0.044872496, 0.07653093, -0.07658266, -0.027865563, -0.02914658, -0.1453661, -0.032274455, -0.14464803, 0.1099325, 0.013029035, -0.078140095, 0.14919734, -0.039419796, -0.084729105, -0.07538965, 0.055532366, -0.13227686, -0.095989674, -0.14250167, 0.050929625, 0.122560106, 0.116676636, 0.048084028, 0.017021757, 0.042496324, -0.12596023, -0.058388196, -0.097423114, -0.032613978, 0.022321163, -0.015928555, 0.09247817, -0.0637828, 0.16954361, -0.043026876, 0.035543013, -0.04049779, 0.012575288, -0.07310516, 0.10063641, -0.09126454, 0.036927123, 0.055793665, -0.021492232, 0.007907515, 0.02511187, -0.016499719, -0.016550748, -0.07734043, 0.16188675, -0.09321502, 0.0066995504, 0.14765957, -0.07556258, -0.084577054, 0.009030816, -0.07359528, -0.09741236, -0.00016627651, -0.12948455, 0.04627367, -0.046277694, 0.017403245, -0.098560885, 0.014559903, 0.09157255, -0.048424985, -0.04631677, -0.097893514, 0.0027171567, -0.030932244, 0.03877338, 0.12480615, -0.072574936, -0.052873675, -0.091594785, 0.04128694, -0.11258745, -0.12067534, -0.0354219, 0.023249984, 0.08845809, -0.04226046, -0.042832002, -0.1231447, 0.14843304, 0.10761475, -0.07973691, 0.07161982, 0.068882175, -0.035710502, -0.014189062, -0.19568394, 0.08625218, 0.10593768, -0.058782365, -0.017896932, 0.040407646, 0.010320739, 0.021703837, 0.08138413, 0.0359097, 0.029629363, 0.03741711, -0.087375626, 0.026515637, -0.10108793, 0.08949348, 0.10744267, -0.07175436, 0.04709958, 0.11494027, -0.1521239, -0.16176575, 0.09553716, 0.100024015, 0.11239199, -0.050631724, 0.0037634443, -0.035179157, -0.11444109, -0.10147036, 0.0894661, 0.10583948, -0.09472973, -0.13042252, -0.040456407, -0.05823468, 0.009332551, 0.20138337, -0.048391636, 0.108870886, 0.1187552, 0.08042753, -0.09692412, 0.13801274, -0.15398587, 0.18258992, 0.12538432, 0.121703885, 0.11995319, 0.003627849, 0.061817758, 0.12424154, -0.114594616, -0.0014117028, 0.04593519, 0.08073252, -0.008567365, 0.0022781822, 0.029556416, 0.11178637, -0.088498846, -0.117981, -0.060599014, -0.17138341, -0.028622614, 0.11870923, -0.13062274, 0.0900277, 0.02991449, 0.02854177, -0.04378725, -0.0458352, -0.016445354, -0.1150338, 0.10657102, -0.08554049, 0.1625577, 0.052620403, 0.010351826, -0.056245573, 0.06054814, 0.111176826, -0.021211037, -0.117202245, 0.015722, 0.028291356, -0.06872687, 0.1421812, -0.120634444, 0.13802952, -0.009544283, -0.0620757, -0.03126334, 0.09237126, 0.009544514, 0.051259305, -0.16793272, -0.10364412, 0.07292436, 0.030416682, -0.12771016, 0.17156574, -0.019046003, -0.077885054, 0.107026465, -0.011376652, 0.08990148, 0.04482953, -0.035104197, 0.08245154, -0.007734265, -0.06027858, 0.073649645, -0.07293324, -0.00047217443, 0.1264297, -0.1482999, 0.08735361, 0.017895397, 0.13617311, 0.17221583, 0.042058215, -0.07508891, 0.06237601, -0.007927321, -0.0330242, -0.13882048, -0.1380636, 0.047185525, -0.075571924, -0.05485251, -0.040977914, -0.075220525, -0.060785178, 0.123995, 0.08777205, -0.095428355, 0.08249925, -0.0832157, 0.1501459, 0.07498563, 0.0003426826, -0.099563904, -0.05806226, 0.119684905, 0.046256743, -0.016533399, -0.04385415, 0.11066053, 0.08853853, -0.09043621, 0.008126387, 0.134348, -0.021110985, -0.111767754, 0.01598757, -0.051133826, 0.11750598, -0.08273051, -0.1830312, 0.14101718, 0.07266123, -0.029285531, 0.05098675, -0.095518745, -0.10942331, 0.07264283, 0.097356305, -0.03995689, -0.108735055, -0.054900546, -0.068400286, 0.061399028, -0.046924878, -0.00463763, 0.11710259, 0.08910383, -0.09009753, -0.10666311, -0.09843339, 0.004114717, 0.045296825, -0.06257543, 0.027133161, 0.10571906, -0.039091706, 0.15939195, -0.12472962, -0.076390594, -0.001466507, -0.12100443, -0.06435865, -0.15474668, 0.04949674, 0.07887429, 0.047492318, 0.01891718, 0.13265859, 0.03532357, -0.15474904, 0.11735984, -0.14894564, -0.09800849, 0.037915442, 0.043757834, -0.04844854, 0.015299293, -0.05904151, 0.17148717, 0.07385311, 0.115117714, 0.06261418, -0.012883107, 0.005051619, -0.027958345, -0.09576997, 0.08039931, 0.05613807, 0.13159123, 0.094746605, -0.011913961, 0.013667036, 0.027756829, -0.08582823, 0.10431613, 0.12442517, 0.024069821, 0.060173377, 0.0017837187, 0.040097874, -0.07252917, -0.097376674, 0.100751564, 0.12892027, -0.091710754, 0.059401695, -0.006248992, 0.14910683, 0.12211505, -0.112719245, 0.010027887, -0.10402778, 0.024359595, -0.05448753, 0.020537755, 0.1413938, 0.048661273, -0.045057286, 0.1060747, 0.056254845, 0.049087532, -0.11596091, -0.12025901, 0.06317073, -0.08885783, -0.010514267, -0.029404646, -0.0875728, -0.05508643, 0.0070917555, -0.070703015, 0.08562812, 0.0011291662, 0.03308875, 0.10513452, -0.042952817, -0.02765813, 0.055030897, -0.105825424, 0.09258607, 0.094493285, 0.003323288, 0.13651614, 0.11775514, 0.057683, -0.14192457, 0.09056888, -0.06741139, 0.072496764, -0.063374445, 0.08232336, 0.031419218, 0.023213906, 0.117078476, -0.08727247, 0.06696152, -0.14561659, -0.029660234, 0.024054365, 0.12877928, 0.059475195, -0.029933287, 0.02187555, 0.059201732, 0.010988277, 0.08351281, -0.021163465, 0.0034870221, -0.096185364, -0.07241816, -0.10157819, -0.0059384843, 0.079261094, 0.13913846, -0.06535974, -0.04995494, -0.02493108, -0.09074488, 0.015601872, -0.106591195, -0.016100436, 0.12427906, 0.17599194, -0.090408206, -0.058316123, -0.020609131, -0.11715354, -0.0849554, -0.037222475, -0.0037704846, -0.06461534, 0.04413473, -0.14109698, -0.12731265, -0.13890916, 0.15014946, -0.022307113, 0.015777672, 0.10403236, -0.048003186, 0.0764124, -0.06112623, 0.016289797, 0.1942991, -0.12353135, 0.017830107, 0.11226243, -0.049027078, 0.14803328, -0.0580257, -0.04879702, -0.057820905, -0.029264845, 0.12969969, 0.12158329, -0.063299276, -0.08994436, 0.0061435364, -0.02172757, -0.09662001, 0.08942849, -0.16967131, -0.05521047, 0.12574317, -0.09531643, 0.12943839, -0.004549668, 0.10128466, 0.023220826, -0.035891782, -0.1273458, -0.075848706, 0.10554558, 0.058056504, 0.040220723, -0.010302099, 0.03495888, 0.0063065686, 0.021942534, -0.06607043, 0.055431444, 0.016554099, -0.00044351927, -0.11092036, -0.04758813, 0.11557927, 0.099802576, 0.12810788, 0.03283013, 0.0075730057, -0.055958446, 0.044536788, 0.019572938, -0.08909706, -0.13147904, 0.021681638, 0.10568761, -0.088178165, 0.085108615, 0.09786913, -0.10563118, 0.038815722, 0.09405331, 0.05721692, -0.090139754, -0.044543944, -0.13951667, 0.014000449, 0.13148324, -0.024987383, 0.09988162, 0.014440054, -0.0002722966, 0.067738675, 0.0019881462, 0.090126246, 0.04479718, -0.10795716, 0.032572947, 0.098878145, 0.07600448, -0.012608824, -0.09876056, 0.0005326739, -0.06385517, -0.049802393, 0.14594537, 0.12089877, -0.01786671, 0.0015799797, -0.12441244, -0.028926715, -0.0034374194, -0.06695815, 0.053817496, -0.13257931, 0.07973398, 0.14431453, -0.10020504, 0.099327296, -0.12362801, 0.0076253475, -0.024537953, 0.11659237, 0.13539915, -0.07140682, 0.028482348, -0.009571329, 0.029465755, 0.119501516, -0.032744955, -0.0116167115, 0.025671784, -0.09559595, 0.024329863, -0.13118112, -0.15697047, -0.059822854, 0.03423533, -0.070762396, -0.06765149, 0.13506302, 0.06724126, 0.065222256, -0.005863949, 0.1224483, -0.1338389, 0.08125219, 0.033511873, 0.026940243, 0.0058277515, 0.06647365, 0.09258509, -0.11385387, 0.055852033, 0.010448446, 0.026651483, 0.02485773, -0.081956804, -0.108975016, 0.072920665, -0.0798765, -0.022177676, 0.08196451, -0.08167112, 0.08366277, -0.09836722, -0.13876843, 0.110348724, 0.098822385, 0.06906984, 0.1251879, -0.054873303, 0.04023764, -0.11827834, -0.0385688, -0.12820767, 0.0140026305, -0.01659332, -0.14099549, -0.13500966, -0.019866794, -0.06780856, 0.07469924, 0.07015594, -0.061566252, -0.057727545, -0.09073777, -0.11822859, 0.06075193, -0.1288463, 0.07820102, -0.0044182385, -0.10594177, 0.15550713, -0.09846644, 0.013158216, 0.14668748, -0.0704463, -0.07160169, 0.0056031253, -0.067246646, -0.10198116, -0.08446248, -0.10602254, -0.08475357, -0.04284054, -0.06866505, -0.0374966, -0.07462176, 0.09705411, 0.0043557603, 0.038469218, -0.08569971, -0.16349421, -0.022488251, 0.09740338, 0.12982433, 0.07856308, 0.1264081, -0.019175723, -0.07525967, -0.04010338, 0.07802222, 0.077627674, -0.073890485, 0.0804399, 0.06339117, -0.08823454, -0.041966956, -0.037375856, 0.06539033, -0.092849515, -0.09080138, 0.10556789, -0.015661681, -0.11478938, -0.039457813, -0.057404105, 0.073290035, 0.02584585, -0.11154549, -0.08286631, -0.14062081, -0.0930334, 0.024014438, 0.053757053, 0.14314274, -0.13402767, 0.09191542, 0.020373825, -0.021702848, -0.08614796, 0.09288127, 0.074467175, 0.0117178215, -0.037303526, -0.012551869, -0.10419779, -0.0599922, -0.09149928, 0.09801223, -0.09205285, 0.016434629, 0.095967144, -0.0907846, -0.12815051, -0.10538412, 0.033708356, 0.07671959, -0.03586322, 0.008327327, -0.08062293, 0.067379035, -0.11274729, -0.1211394, -0.058731075, 0.07493842, -0.024908472, 0.13753802, -0.11071556, 0.1527665, -0.020721817, -0.004977403, 0.11313679, -0.098850146, -0.07144779, 0.0063214595, -0.0458765, 0.0012871824, 0.0008370408, -0.12725325, 0.042177446, -0.01751075, 0.112794586, -0.005157549, 0.037483692, -0.13181318, 0.17591003, 0.11948043, 0.08682953, -0.030105434, 0.08453864, 0.04243725, -0.075223215, 0.04682758, -0.0032039976, -0.026140183, 0.08733858, -0.08950307, 0.072317466, 0.13868831, -0.09375984, -0.10131588, 0.005151745, -0.09794148, -0.05561561, -0.013193576, -0.044870075, 0.118217975, 0.113556914, 0.11598679, 0.055381335, -0.0032696375, 0.015442175, 0.082368344, -0.0046416335, 0.01848126, 0.08829505, 0.012908935, -0.117832735, 0.018266555, -0.17482741, -0.037668105, 0.07714429, 0.150165, -0.023539536, 0.0054903487, 0.08668126, -0.16150205, 0.06438362, 0.039495688, -0.13629943, 0.10497448, 0.07169647, 0.078853704, 0.10969278, 0.10702386, 0.09763902, -0.07765492, -0.06275001, -0.05837927, 0.055685107, -0.032170057, 0.14006415, -0.018040156, 0.047477722, 0.06536513, 0.06192624, 0.105380714, -0.10498694, 0.10691648, -0.10065502, -0.074778676, -0.06449804, -0.015712176, 0.07282173, 0.015518867, 0.0688251, -0.034767844, 0.071235426, 0.035938572, 0.056525063, 0.03902368, -0.08747012, -0.07284918, 0.1477634, 0.116838515, -0.047476355, 0.019692203, -0.1262699, 0.028492304, -0.11362241, -0.0015265833, -0.008675216, -0.02280824, -0.053581722, 0.0330674, -0.01388322, 0.11961417, 0.07287448, 0.10057448, -0.1191396, 0.088917926, -0.087744854, -0.10919097, -0.13422266, 0.11548888, -0.11221511, -0.052571777, -0.06603155, -0.12682049, -0.006362207, 0.028567985, 0.080350555, -0.033986993, -0.085328944, 0.17509973, -0.122496024, 0.13955949, 0.12700465, 0.0052756937, -0.018342655, 0.0068056015, -0.09531988, -0.09921633, -0.10861402, 0.11012645, 0.19445328, -0.12077922, -0.024378346, 0.108389705, -0.008330931, -0.03822297, -0.027946638, 0.074209295, -0.06487486, -0.045251932, -0.16772053, 0.036737427, -0.076113984, -0.003828539, 0.07949314, -0.017232265, 0.098790035, 0.045392502, -0.04963392, -0.020623341, 0.05670105, 0.03870464, 0.10027595, -0.0162288, -0.0021105404, -0.044979695, -0.060814343, -6.6425724e-05, 0.13859704, -0.11988664, -0.054100614, 0.0032569484, 0.12264596, 0.010190183, 0.1435012, -0.13030493, -0.13499545, -0.14665554, -0.020278325, 0.12751397, -0.0027379014, -0.10743925, -0.09849201, 0.018378714, 0.10971031, 0.019540537, 0.04905783, 0.0490799, 0.02285107, -0.0121360775, -0.033099428, 0.08713977, -0.06662034, -0.055671595, 0.03402501, 0.008624937, 0.03982658, -0.013600011, 0.036817566, -0.037036076, -0.061999816, -0.034979545, -0.009693194, 0.014086127, 0.04055882, -0.04587783, 0.08272322, 0.118228, -0.07019889, 0.11748136, 0.11084193, -0.06369026, 0.068323076, -0.057670943, 0.07359515, -0.032042343, -0.12682405, 0.07968784, -0.07233001, -0.057087474, 0.0010617119, 0.05860559, -0.10304309, 0.011575205, 0.07985774, 0.030681953, 0.124749735, 0.052639015, -0.06528713, 0.028940903, -0.08881702, 0.020775389, 0.12027698, -0.0146321505, -0.058057535, 0.0111612575, -0.06288277, 0.067081206, -0.0813888, -0.1128719, -0.034065854, -0.03955057, -0.09325597, -0.1502467, -0.112964235, 0.061408464, -0.0014904182, 0.036309045, -0.04460322, 0.11073614, 0.04386247, -0.02768774, -0.1250674, -0.15891896, -0.13077584, -0.06815619, 0.073997185, 0.15847422, -0.004499663, -0.104835205, -0.01784889, -0.06278968, 0.059581492, 0.03621946, -0.037651837, 0.034983493, -0.03302921, 0.029675577, -0.037888072, 0.16722707, 0.0126948925, -0.11160012, -0.14364237, -0.02325167, -0.108655006, -0.04098231, -0.09341467, -0.03412355, -0.12628245, -0.03997359, 0.11469442, -0.06178309, 0.024282692, -0.044626188, -0.103039786, -0.02144241, 0.038851075, 0.08784294, -0.044089194, 0.10044303, 0.04112222, -0.04490933, -0.13812009, -0.107198745, 0.041263416, -0.1320809, -0.018748213, 0.060406055, 0.08979615, 0.019360842, -0.06429055, -0.07079511, 0.026109733, 0.079978354, -0.11408455, 0.07109267, 0.11068329, -0.002164719, 0.03878235, 0.039138176, 0.06709539, -0.10209597, -0.13390091, 0.14138424, 0.04918912, 0.10154961, 0.032022055, 0.10226348, -0.08556865, 0.073153146, -0.050239477, -0.06350131, 0.066795506, 0.0867512, -0.02357913, -0.08765708, 0.06068699, 0.12046872, -0.06750429, 0.052016493, -0.057258315, -0.04384408, 0.17909555, 0.061779525, 0.09590196, 0.13616972, 0.12360759, 0.06912697, 0.033608664, 0.006087845, -0.09960503, -0.08745041, -0.003594348, 0.013422102, -0.12705924, -0.03566865, 0.07727891, -0.007631555, -0.08442171, -0.056518767, -0.09694794, -0.03251462, -0.100163355, 0.052596524, 0.053200748, 0.10553805, -0.01894226, -0.08679176, 0.048234016, 0.051311716, -0.03007576, 0.068896465, 0.10622513, 0.02648433, 0.10255122, 0.17801344, 0.07028982, 0.07434629, -0.1536475, -0.14228155, 0.056423616, 0.085032254, -0.048103914, 0.10411804, 0.014687654, 0.017036395, 0.014804507, 0.059282105, -0.1114626, -0.051312678, -0.094379984, 0.090169534, 0.04987544, 0.032372806, -0.14213564, -0.031482708, 0.09771992, 0.03874436, -0.03381889, -0.038149744, -0.07683328, -0.13579564, -0.11097146, 0.07053475, -0.068769395, -0.12967749, 0.09164822, -0.08627106, -0.09710849, 0.057995662, -0.059480947, 0.06904162, 0.0013327461, -0.13338263, -0.027128862, 0.063349865, -0.06617294, 0.034594208, 0.12607335, 0.08937537, 0.08364844, -0.02267125, 0.07975146, 0.00076348055, -0.080047615, 0.15803038, 0.04982648, -0.055815205, -0.010185974, 0.08265975, 0.027607666, -0.12187995, -0.07578463, 0.070478395, 0.07520693, 0.16994318, 0.013825485, 0.10002445, 0.060546603, -0.1830355, -0.029889055, 0.085973285, 0.026483983, -0.09071624, -0.1268177, -0.14719854, 0.0025762203, -0.049263377, 0.06556755, -0.06334446, -0.043999854, 0.05843428, 0.11808249, 0.05745392, -0.028283227, -0.024992954, -0.02288313, -0.082288235, 0.042420253, 0.10702833, -0.09050221, 0.061387397, 0.067714795, 0.13556163, -0.05101222, 0.08533964, 0.14624639, 0.09754983, -0.05822535, 0.08132053, 0.113554604, -0.020922448, -0.10975208, 0.06310141, -0.03896179, 0.03926188, -0.08636939, 0.12443345, 0.07969679, 0.13988502, 0.088167645, 0.02414576, 0.061980084, -0.073198274, 0.01904078, 0.022794563, -0.025007963, -0.14124086, 0.05701642, 0.15319158, 0.0012976252, 0.059683394, 0.13720946, -0.103087984, 0.008320947, -0.10961055, 0.06861501, -0.056986354, -0.008281313, 0.13004878, -0.06922578, -0.18564917, -0.05999913, 0.095200695, 0.13681395, 0.115668856, -0.07071982, -0.08056207, -0.02518614, 0.11069526, 0.05525085, -0.07588763, -0.02453248, -0.09286056, 0.033667855, -0.0010895047, 0.02841635, -0.04026307, -0.047694083, 0.04847573, -0.014963531, -0.019061657, -0.113605104, 0.009926874, -0.035830207, -0.03815666, 0.021384655, -0.00054238026, -0.007380689, -0.05705964, 0.117391005, -0.006575354, -0.11394133, -0.09946512, 0.10644902, 0.0899203, 0.13425893, -0.08367882, -0.084346905, 0.03157321, -0.101468496, -0.024571309, 0.09663033, -0.12173388, 0.017303517, -0.027798276, 0.0016122042, -0.020571748, 0.07862465, -0.106208056, -0.08448387, 0.033203103, -0.011950231, -0.09550969, 0.07997073, -0.037999023, -0.12406061, -0.05972652, 0.0893646, 0.12089007, -0.08976779, -0.014563559, -0.009526497, -0.116674885, 0.0034593455, 0.112329654, -0.031109568, 0.08019829, -0.0040775393, 0.03441246, 0.077323124, -0.15014742, -0.12939969, -0.013613029, -0.018933915, -0.10321067, 0.12207502, -0.09974155, -0.047116335, -0.04079487, -0.028698845, -0.14225952, 0.04082283, -0.074964985, 0.024323532, -0.036753748, -0.029911388, 0.12352074, -0.10121264, -0.013996579, 0.0116155725, -0.019009288, 0.028797084, -0.13401228, 0.105847485, 0.12578554, -0.039306086, 0.017960336, 0.07271868, -0.11045192, -0.06510309, -0.088340536, -0.08283255, 0.059186812, 0.079006046, -0.03181767, 0.015217701, -0.05741195, -0.07344653, -0.076823, 0.056072608, 0.09464726, 0.047750056, -0.11023719, -0.10721772, -0.070161976, 0.033831175, 0.13203847, 0.001823317, 0.14333577, 0.107026845, -0.026465394, -0.009202283, 0.089961335, -0.010024729, 0.013782991, -0.116563, -0.05766454, -0.07458448, -0.049745157, 0.15522057, -0.16310479, -0.092953846, -0.06390087, -0.12268364, -0.085450485, -0.1541636, -0.0032037941, 0.06684511, -0.103724256, -0.07164828, 0.099093765, -0.04114329, -0.09479262, -0.07553774, -0.040192243, -0.07954319, -0.15072373, 0.13277847, 0.0057112165, -0.07079357, -0.084052615, 0.023343595, -0.034199562, 0.08897189, 0.040657766, -0.17414217, -0.05664555, -0.016749201, 0.045151163, 0.106849864, 0.033822257, 0.0744378, -0.056721073, 0.12633245, 0.12993121, -0.083972454, -0.09264312, -0.105356775, 0.15856269, -0.10832206, -0.049740665, -0.12780045, -0.16517484, 0.08446277, -0.026047695, -0.053433243, -0.014392575, 0.08798177, -0.119739845, 0.06360908, -0.08519507, -0.025775656, 0.026879687, -0.047083292, 0.09314896, 0.006405362, 0.04794089, -0.107089594, 0.036569748, -0.046687353, -0.09736887, 0.044285454, 0.018387372, 0.00856345, 0.06469811, 0.0017252449, -0.0030998096, -0.022622539, 0.13045579, 0.10964983, 0.06783567, 0.119031794, -0.012294391, 0.113569625, -0.10492704, -0.060191665, 0.079666324, 0.030828409, 0.13694417, 0.07225226, -0.07979644, -0.11624394, 0.13543423, 0.12975197, -0.10995319, -0.03640935, 0.12188838, 0.05504784, 0.11444328, 0.08285922, -0.049097463, -0.109413594, 0.0047040367, 0.08423877, -0.08862531, 0.06986711, -0.17506681, 0.122070745, 0.14538968, 0.105550416, 0.038308695, 0.013983251, 0.031832565, 0.086307816, -0.10983167, 0.044326607, -0.006589806, -0.124623954, 0.040912, 0.15321586, -0.0127962055, 0.07779839, -0.14142193, 0.09161127, -0.08423904, 0.06233856, 0.03140853, -0.07077607, 0.015138419, -0.01808014, 0.07338421, -0.050334007, 0.0063655605, 0.1153232, -0.13514918, 0.11544528, -0.06139178, 0.021049844, 0.14749591, 0.02315285, 0.087177105, 0.08872127, 0.054102086, -0.10683268, -0.040110055, 0.007744415, -0.018859332, 0.058808714, -0.07889846, 0.054826498, -0.039289072, 0.0744973, -0.13696721, 0.016948009, 0.108548924, -0.09866005, -0.039547436, 0.075611204, -0.07052345, 0.012610615, -0.006999498, -0.14316368, -0.06711817, -0.09731732, 0.06614744, -0.09420762, -0.018687442, 0.09687698, -0.07268014, -0.029043918, 0.07409873, -0.122859426, 0.023417555, -0.013280506, 0.10152444, 0.13639653, -0.1146822, 0.06531579, 0.109706, 0.055403203, -0.0032696, -0.114097066, 0.07072237, 0.050987206, -0.09321854, -0.09473341, 0.06762766, -0.059176676, 0.08415219, 0.13072361, -0.036543727, -0.0334878, -0.081124924, -0.010630157, 0.09687939, 0.13312176, 0.07408593, -0.09149088, 0.14293775, 0.10236024, 0.0900989, -0.0016649457, -0.023462282, 0.05703308, -0.05877705, 0.052265327, 0.0041156467, -0.17138496, -0.047274224, 0.0865344, -0.039483827, 0.09133684, -0.11768358, -0.090303294, 0.1385228, -0.048227582, 0.09856069, -0.10739792, 0.021337122, -0.085930936, -0.1368624, -0.09844947, 0.08062342, -0.12235595, 0.08350576, 0.090570174, -0.10295499, -0.047654316, 0.008170769, -0.07269441, 0.050458867, -0.064904384, -0.0637419, 0.10390923, 0.055871617, 0.1407477, 0.048901703, 0.07852131, -0.12866578, -0.07278267, 0.105661616, -0.025712932, 0.06961327, -0.12943372, -0.057415467, 0.025265487, -0.16732909, 0.031220054, -0.004802745, -0.11255989, -0.01915075, -0.10622962, 0.03984565, -0.14235145, 0.110551275, -0.041671216, -0.048462767, -0.16048855, 0.032361742, -0.052852377, -0.06359625, -0.025879625, 0.011208234, 0.030723212, 0.0068645566, 0.080006726, 0.054690763, -0.041410774, -0.06444968, -0.09053374, -0.09858631, 0.009488541, -0.08993157, -0.026404979, -0.08164415, 0.11940715, -0.07158029, -0.0044340743, -0.069661826, 0.10942892, -0.07823788, -0.04243673, -0.11836552, 0.030898307, 0.0011987612, 0.16862363, -0.0565132, -0.04983561, -0.103020206, -0.09936447, -0.12421421, -0.025026765, 0.15330239, -0.024698995, 0.122279316, -0.08262675, -0.033031754, -0.112632744, 0.056572266, 0.035120737, 0.042010732, 0.080706, 0.07057491, -0.10964537, -0.08658693, -0.043597706, 0.06442174, 0.1072806, 0.055364046, -0.014896615, 0.043532904, 0.10902626, -0.09333076, -0.0022063414, 0.08185946, 0.11478789, 0.0002269121, 0.06221668, -0.07386711, -0.009739293, 0.13398014, 0.006720715, -0.10930648, -0.04685059, 0.0032379995, -0.005595004, 0.0028235198, -0.057812896, 0.14808038, -0.09512358, -0.045870014, -0.0687691, 0.10939545, -0.16010652, 0.070067756, -0.028113827, -0.059458088, -0.10711084, 0.0963938, 0.08883524, -0.07730576, -0.028730726, 0.096037276, -0.045483768, 0.029876692, 0.033105347, -0.022768674, -0.030667659, 0.07780019, -0.16068333, 0.08417614, -0.09544762, 0.014371279, -0.04062909, 0.12906528, 0.093677446, -0.1531568, 0.032423843, -0.035481595, 0.011641264, 0.038616676, 0.11988771, -0.033187643, -0.01840771, -0.009181289, 0.06938289, 0.07246086, 0.11838956, -0.060959764, 0.09974118, 0.11872341, 0.11674057, 0.07469691, -0.05085347, -0.007805452, -0.072121084, -0.1251687, -0.018199172, 0.06961337, -0.11068349, -0.031663958, 0.041332055, 0.06684492, 0.12684873, 0.0020966216, 0.08134024, -0.1403634, 0.03863231, 0.1228697, 0.036723558, -0.06971021, -0.114329755, -0.011798388, 0.13540053, -0.032171655, 0.15369265, -0.091866255, 0.06924903, 0.060440443, -0.10740198, -0.043536674, 0.05135334, 0.1266803, -0.055508677, 0.004911095, 0.02439761, -0.0504789, 0.14630634, 0.10549622, -0.025454381, -0.12329677, 0.12675054, -0.092587896, 0.015978673, -0.09108126, 0.023535218, 0.09529694, 0.117865644, 0.029565265, 0.05573076, -0.11843337, -0.03900219, -0.035281193, 0.023879064, 0.048319492, -0.026933467, 0.070539504, -0.07963202, 0.03874193, -0.16451058, -0.046997465, -0.18344152, -0.07153082, 0.04815706, -0.05537357, 0.106200784, -0.0027435957, -0.09600378, -0.03865375, -0.058392927, 0.030402312, -0.11706561, -0.0008778803, -0.103643864, -0.04251866, -0.011186074, 0.07313594, 0.12880448, -0.08594789, 0.001043022, -0.032255236, 0.033200808, -0.124523796, -0.14452249, -0.06832559, 0.010230089, -0.07845987, 0.117276646, 0.0048709805, 0.08505726, 0.10298285, -0.07541116, 0.108238205, 0.052409977, -0.1463774, 0.09017302, 0.00014964577, 0.0898818, -0.029078642, 0.008294, -0.021551408, 0.09852272, 0.009463768, 0.056688383, 0.09852776, 0.050569393, -0.005003175, 0.09636266, 0.102005154, 0.06968577, -0.08775573, -0.025210528, 0.08866789, -0.032979656, 0.14325738, 0.0014233096, 0.12850529, -0.029323408, 0.044882335, 0.026211388, 0.0159975, 0.0796686, -0.036256082, 0.030688891, -0.088592455, 0.009409636, 0.08252851, -0.09727912, 0.14563529, -0.03995036, -0.13304213, 0.013224874, 0.08126199, 0.009993874, 0.06278256, -0.07262253, -0.07238293, 0.06188567, 0.047529634, -0.04078617, 0.10523779, -0.011099372, -0.107311666, 0.13155091, 0.03173177, -0.0068295063, -0.08164553, -0.022053834, -0.071756385, 0.16165748, 0.0037463016, -0.09171856, 0.12911841, 0.033257164, 0.025475722, -0.12658143, -0.03590045, -0.05112182, -0.100816146, -0.012674164, 0.11424022, 0.053064052, -0.12368697, -0.11551876, -0.053664416, -0.0013760064, 0.0016477072, 0.053997464, -0.04974616, 0.06834257, 0.033281773, -0.042584706, 0.061040103, 0.14450376, -0.010053353, 0.02268384, -0.06481842, 0.07608758, -0.10252279, 0.047889333, 0.043918107, 0.103942685, -0.02855586, 0.010107163, 0.0536255, -0.10958481, 0.067323595, -0.025839977, -0.034460243, -0.019457191, -0.048469685, 0.058433715, 0.024185587, -0.108169295, -0.088098146, 0.043848835, 0.061514564, 0.085464776, -0.06984161, 0.14788568, 0.033274204, -0.008154085, 0.030422272, 0.057379965, 0.012658384, -0.11642872, -0.12230258, 0.076139115, -0.09426277, 0.11057692, 0.178425, -0.06708911, -0.0550716, -0.07590702, -0.091275044, 0.012187398, 0.019964356, -0.08473542, -0.1170784, 0.0022359977, 0.047122784, -0.15483013, 0.06084813, 0.051643785, -0.007775326, 0.025328226, 0.014990603, 0.029318329, 0.03523641, 0.010443058, 0.08340857, -0.15615542, 0.07836457, -0.07486706, -0.11074701, -0.15897477, 0.13539928, -0.0014434662, 0.056899644, 0.038553644, -0.088918224, -0.060984347, 0.045707323, 0.04104734, 0.055220332, 0.13329871, 0.010395034, -0.04435098, 0.056940656, -0.08728961, -0.08970611, -0.03634731, 0.07068911, -0.14284228, -0.055694364, -0.08798506, -0.08441139, 0.09931823, -0.015757844, -0.067531444, -0.058153827, -0.025394859, 0.07856576, 0.098042324, 0.13507801, -0.14224342, -0.03787482, -0.05615589, 0.00042048315, -0.062114958, -0.077546865, -0.09628356, -0.03023011, 0.09398792, 0.08432674, -0.0033099696, -0.040450707, 0.07533531, -0.08388678, -0.11942411, -0.06367593, -0.064227745, -0.010689154, 0.05804757, -0.03677145, -0.054400053, 0.06399643, -0.08231987, -0.08983742, 0.12171643, 0.041269, 0.059786893, -0.10336016, -0.03871973, -0.072283015, 0.13105324, 0.029277023, -0.04060485, 0.036981504, 0.08593487, -0.031600557, -0.07153075, -0.043453716, 0.10849104, -0.09063647, 0.019367827, 0.21221887, 0.06700374, -0.06762949, 0.0016168347, 0.034990393, 0.021055987, -0.13778354, 0.10401025, -0.025801828, 0.092324086, 0.0015339727, -0.07964975, 0.06911641, -0.0959139, -0.04892428, 0.07577207, 0.050817844, -0.16291869, -0.070263475, 0.09684129, 0.06739833, 0.028570432, 0.10198913, -0.027761687, 0.099979, -0.006014765, -0.020607224, -0.124453135, 0.09180284, -0.08086761, -0.10704735, 0.05250324, -0.11037106, -0.05859753, -0.07783577, -0.018761996, 0.107095666, 0.17666541, -0.0793081, 0.036788106, 0.01618762, -0.07069959, -0.0018236666, -0.042478517, -0.058804628, -0.059266504, 0.041519344, -0.024406979, 0.088023044, -0.024885941, -0.049419574, -0.082616255, -0.13548873, 0.10647909, 0.12500021, 0.0571872, 0.05741849, 0.10276988, 0.08979184, 0.08072443, -0.030799562, -0.067016765, -0.09183356, -0.08150946, -0.16377635, 0.02497313, -0.02272907, 0.0019167694, -0.13455442, 0.001122691, -0.0762547, 0.039079543, 0.0867897, 0.11175154, -0.08655201, 0.059576724, -0.022036161, 0.051285103, -0.0788732, 0.04240378, 0.11107421, -0.021024633, 0.034770347, -0.09287063, -0.005128626, 0.03922105, 0.031753108, 0.063476704, 0.06723444, 0.021654267, 0.05563063, -0.065970495, -0.009513043, -0.08463684, -0.08282266, -0.01985822, 0.20312543, -0.1035504, 0.17452872, -0.02637273, 0.021566128, 0.10114749, 0.03925882, -0.041486498, 0.12710835, 0.016518654, -0.17570631, 0.0027828543, 0.10485612, 0.09224493, 0.11032923, 0.10819285, 0.09242234, 0.052948687, 0.081474096, -0.06736586, 0.002476398, -0.046634883, -0.09808522, -0.020732012, -0.092055865, -0.046110336, 0.09808382, 0.12707388, -0.08244214, 0.010967398, -0.011477932, 0.13280688, 0.042152572, -0.0039460496, -0.03383436, 0.075619474, 0.00010761529, 0.10267919, -0.06307901, -0.021145364, 0.09153074, 0.018449297, 0.04571768, -0.0063489396, 0.046899393, 0.11135366, -0.0019152025, -0.1514065, 0.0031502296, 0.0674981, -0.034186106, -0.036009956, 0.01509653, 0.024112798, -0.056503978, 0.008060394, 0.0005433555, -0.024397226, -0.03354918, -0.0066855215, -0.015827635, -0.05343448, 0.07463136, -0.029701805, -0.09611902, -0.07888339, -0.020913193, -0.11935256, 0.056999587, -0.08944566, 0.016993895, 0.034934074, 0.06080175, -0.0818582, 0.08641147, -0.0052082157, -0.15294258, 0.0956126, -0.11896001, 0.1370629, 0.062038627, -0.013867283, 0.01174176, -0.0971236, -0.06373003, -0.061580446, -0.133264, -0.037657063, -0.025590705, -0.10071792, 0.116445825, 0.08815249, 0.115216725, -0.050634913, 0.081019364, -0.081029765, 0.03066372, 0.08278916, 0.004617279, 0.002569474, -0.0013246412, -0.1070876, 0.033710357, 0.111334965, -0.12345491, 0.07503874, 0.062268175, 0.075152926, 0.07783275, -0.0700801, 0.083651096, 0.16961621, 0.08159157, -0.16066085, 0.06868405, 0.14962333, 0.06183168, -0.028638918, -0.060055777, 0.047541466, 0.08301291, 0.01047322, 0.06702675, -0.04924434, -0.077530496, 0.061851177, -0.116962336, -0.01032571, -0.08057038, 0.008492626, 0.05561495, 0.071883485, -0.05921494, 0.177858, 0.043523274, 0.02665393, -0.03924466, 0.055654727, -0.14623623, -0.058180198, -0.009685273, 0.087159045, 0.035950948, -0.09714757, -0.13020466, 0.083182015, -0.0055217333, -0.00684588, 0.0075492067, 0.11761431, 0.13287205, -0.045443453, 0.15123712, -0.11407066, 0.04701907, 0.030555107, 0.056608174, -0.041817162, -0.0036331885, -0.0606068, -0.08093564, -0.09483115, -0.07901212, -0.09031322, -0.12598902, -0.12217675, -0.10517318, 0.043793775, 0.033542752, 0.106505126, 0.033379037, -0.058241017, -0.088443086, 0.06196221, -0.039062623, 0.11245714, -0.019317996, -0.14425966, -0.04792686, -0.036308914, -0.082841344, 0.00590212, -0.0026539832, -0.08205092, -0.08759345, 0.13791645, 0.14172658, -0.08242047, 0.009382579, 0.09857646, -0.044321492, 0.12217734, 0.057535086, -0.06216683, -0.0055625383, 0.057987295, -0.1399173, 0.08732293, -0.034496244, -0.0639459, 0.076560356, -0.07270686, 0.029248012, -0.08907526, -0.047850795, 0.0045402776, 0.014205651, -0.036706973, 0.094938934, 0.08106135, 0.13002041, 0.14975408, 0.13240092, -0.08207911, -0.027636558, 0.07291883, -0.05534306, -0.1405965, -0.06678399, -0.06792267, 0.005878521, 0.019425752, 0.11455908, 0.13853762, -0.07277122, -0.106662974, -0.012169885, -0.11786104, -0.066279806, 0.0074368035, 0.16866542, 0.06581317, 0.005631902, -0.00903365, 0.09029438, -0.14798377, -0.02024836, 0.052384548, 0.031049285, -0.090411276, -0.113060825, 0.047603443, -0.04038753, -0.0971437, 0.06703894, 0.09753822, 0.027819084, -0.09258217, -0.029588718, 0.097653635, 0.11575788, 0.07024097, -0.11345637, -0.06732602, -0.043323148, 0.06409565, -0.08282651, -0.08736539, 0.10738492, 0.052926846, -0.058814254, 0.08079463, -0.048796177, 0.04958713, -0.091207296, -0.03235147, 0.018986635, 0.025514135, 0.08306593, 0.10505719, -0.10971358, 0.041542217, -0.00206248, -0.10454439, 0.031246152, 0.02925253, 0.13856165, -0.053833958, -0.06672671, -0.09507178, 0.0877629, 0.15326281, 0.07969126, -0.06571893, -0.078049906, -0.10221268, 0.11586703, -0.08135397, 0.22188778, 0.017784651, 0.07498551, 0.046789408, -0.033938296, -0.10503787, 0.04224018, -0.066871144, 0.09852232, 0.003603596, 0.07170198, -0.05853959, -0.035282772, 0.010420676, 0.00042550344, 0.096228406, 0.032339685, -0.057553507, -0.05528036, 0.024028694, -0.06980899, -0.06605809, -0.15612663, 0.0010318488, -0.10098977, -0.054325216, 0.0146988025, -0.062051352, 0.018636486, 0.064932846, 0.035522208, 0.11009657, -0.024184188, -0.01816604, -0.12216875, -0.042476326, 0.11696678, 0.16421652, 0.12625386, -0.017588468, 0.052839193, -0.034699466, -0.0788786, -0.084054485, -0.019454246, 0.05001528, 0.08620531, -0.110549636, -0.048863273, -0.042950887, 0.000629625, -0.093958944, 0.10040366, 0.011784049, -0.07908364, 0.09316607, -0.07023111, 0.041548755, -0.05239522, -0.054612458, 0.062225446, 0.013376481, 0.0075433073, 0.011606302, 0.066904195, 0.00014535243, -0.0789499, 0.03394665, -0.023672394, 0.04253853, -0.00162883, 0.021720635, -0.07649818, 0.03566341, 0.0795748, 0.13992636, -0.12954593, -0.019453563, -0.055985358, -0.03802557, -0.09028768, 0.11274476, -0.009696594, -0.078991294, 0.14007142, -0.06780052, 0.046839688, 0.038323253, -0.03634933, -0.04957274, 0.08923943, 0.085062556, 0.05169744, -0.0007430667, -0.08557041, -0.13470091, 0.011336634, 0.048506957, -0.0902148, -0.12483965, -0.15084313, 0.09938707, -0.024558667, -0.067054525, 0.07705682, 0.15203102, -0.12622847, -0.04685138, 0.09612552, 0.06676247, -0.060980428, -0.0058005364, -0.16312778, 0.053367898, -0.0417539, 0.09943377, -0.06560768, 0.081843995, 0.0715844, -0.007122132, 0.08898915, -0.039802425, -0.029741546, -0.050856024, 0.04803285, 0.13167371, 0.10776763, 0.12620477, -0.1628073, 0.062484503, -0.053535175, -0.13384551, -0.04004833, 0.114549, 0.018814707, -0.08067858, 0.019823136, 0.049319085, -0.057834968, -0.035821475, -0.06802435, 0.07716702, 0.072778165, 0.12064914, 0.0785378, 0.063958965, -0.012101517, 0.023356242, 0.009932981, 0.060932282, -0.08988348, -0.1587321, -0.055376343, -0.010637557, -0.04697506, 0.036821548, 0.1395532, 0.05639222, 0.08575765, -0.06744207, 0.03732012, 0.03886477, 0.049836326, 0.015255355, -0.019779835, 0.12921631, -0.008175888, 0.12898, 0.023174338, 0.043739356, 0.111738816, 0.029808806, 0.07372566, 0.1504985, -0.017621163, -0.03417496, -0.073664375, 0.067327134, 0.09055476, 0.11866352, -0.078228705, 0.011248143, -0.1047589, -0.07754006, 0.0128879845, 0.075132005, 0.101427786, 0.09839723, 0.015417885, -0.103593685, 0.046112068, -0.0017871537, -0.0085678715, 0.080201305, 0.15942343, 0.026450614, 0.0042002546, 0.13343786, -0.030711377, 0.081517205, -0.108676836, 0.1011596, -0.17400774, -0.15935884, 0.09063234, 0.0010362205, 0.042779997, 0.12492029, -0.029214071, -0.04022913, -0.006292537, -0.11396956, 0.05138209, -0.06982798, -0.00019198166, -0.01987107, -0.025179211, -0.17309095, -0.0735254, -0.034306176, 0.021826597, 0.042806663, -0.060038418, 0.080295034, -0.11572137, -0.08042909, 0.11031481, -0.10754787, 0.08426055, 0.07195941, 0.14215271, 0.007872208, 0.10947831, -0.047971766, -0.11426793, -0.1681991, 0.13726929, -0.08382374, 0.11641501, -0.005783191, -0.118546166, 0.16811028, 0.06796927, -0.153935, 0.09149148, -0.15243271, -0.051895216, 0.11061722, 0.06809463, -0.11444423, -0.018857764, 0.105529554, 0.1279025, -0.02208164, 0.022808412, 0.104884736, -0.080149986, -0.01987829, -0.026330689, 0.09063848, -0.090706274, -0.005677802, -0.08507934, -0.12314231, -0.015483939, -0.043089252, 0.011163587, -0.084958285, 0.07803826, -0.002301259, 0.107383326, 0.014445803, -0.010754432, -0.015926613, 0.051405035, -0.049830686, 0.017171172, 0.062074956, 0.059229523, -0.090965554, -0.093641594, 0.12855697, 0.022139514, -0.1156939, 0.091469124, -0.11245928, 0.023373669, -0.09511369, 0.16451119, -0.02889212, 0.14924356, 0.091706954, 0.06611179, -0.040342458, -0.07421008, -0.06802171, -0.05239286, -0.05846712, -0.019952402, -0.018896699, 0.006442786, 0.00597181, -0.10089687, 0.072616816, 0.043888647, -0.00091905746, 0.16578087, -0.03992901, 0.13762772, 0.08064638, -0.06498143, 0.11593497, 0.044052947, -0.18540448, 0.15460572, -0.030889638, -0.024533028, 0.023008231, 0.1261915, 0.050931703, -0.08202409, -0.14129148, 0.0016836277, 0.09149648, 0.1055354, 0.11975037, -0.02631947, -0.05521641, -0.09183048, -0.15864915, -0.010909082, -0.086930566, 0.13117015, 0.030649934, 0.10801558, 0.109966464, -0.13483755, 0.12119528, -0.09474183, -0.11719654, -0.081303224, 0.04372165, -0.1074047, 0.09730422, 0.002934406, -0.020686604, 0.09527164, -0.03724085, -0.033823848, -0.10276117, -0.045559704, -0.033222612, 0.047714856, 0.068341054, 0.10781566, 0.09059245, 0.074080594, -0.019315096, -0.14170322, 0.026335824, 0.011966783, -0.091903195, 0.14253499, 0.050650753, 0.021762496, 0.07652239, -0.011607432, 0.02280735, 0.07704377, 0.12639906, -0.0069659464, -0.060337268, 0.034748644, -0.09865732, 0.053933863, 0.14259632, -0.102356985, -0.05266678, -0.018199436, -0.11426126, 0.040653992, 0.11096796, 0.020794742, 0.1297253, 0.19290234, -0.053234663, 0.10501218, 0.016423734, -0.0265305, -0.046176486, -0.0485878, -0.046024557, -0.045003884, 0.036181685, -0.058004193, -0.11702798, -0.07670998, 0.020610373, -0.052121773, -0.03329537, -0.138505, 0.10129911, -0.0036419302, -0.111718714, -0.060303368, -0.14135353, -0.126823, -0.08247197, -0.10298589, -0.15872756, 0.033315204, 0.11484993, 0.13722217, -0.053759184, 0.069506705, -0.024316344, -0.093425095, -0.12478568, 0.056275245, 7.964616e-06, 0.12094998, 0.10861441, 0.15907721, 0.0375957, -0.10916826, -0.18446584, -0.13107581, 0.08287091, -0.0024689806, -0.018379359, 0.087224655, 0.103390105, 0.06604379, 0.055522587, 0.13047327, 0.015929902, -0.010670337, -0.06920215, -0.070032366, -0.045149703, -0.10258857, -0.07822031, 0.08199398, -0.009143313, 0.07455752, -0.0010130078, -0.04182274, 0.0051645134, -0.06321276, -0.039691795, -0.113156535, 0.12914748, -0.06873405, 0.07681038, -0.07110056, -0.013746613, 0.0160183, -0.081701964, -0.09590355, 0.11009332, -0.12655668, -0.03782017, -0.017849043, -0.06200713, -0.047843058, 0.04035587, 0.047168314, 0.02762537, -0.021258673, -0.025378756, 0.10724575, 0.007560463, 0.0022928463, 0.14822339, -0.07673047, -0.03166219, -0.10288911, -0.13870922, -0.053215675, -0.053613137, -0.009186226, 0.035517752, -0.046122193, -0.0805779, 0.0085454, -0.030236823, -0.16969499, 0.04800807, -0.071955875, 0.0130596105, -0.035930052, 0.0037643197, -0.006218182, -0.049748, 0.09593145, 0.100770056, -0.05932055, -0.14888954, 0.074124545, -0.044378966, -0.110865586, -0.024440132, -0.048747793, -0.11516731, 0.015377593, -0.13424648, 0.059908316, 0.034465432, -0.07702256, 0.10560583, -0.07045614, 0.14352326, -0.072664, -0.12772055, 0.09187701, -0.03347107, -0.09061695, 0.10986362, 0.09054916, 0.12759604, 0.10788021, 0.065089755, 0.0074712704, 0.08070816, -0.03994276, -0.13176604, 0.113757305, 0.083472036, 0.057174064, 0.085599065, 0.011930273, 0.070779026, -0.10188376, 0.06920955, 0.066913225, 0.0057719294, 0.11914529, -0.025710115, 0.09118027, 0.15754522, 0.0038875695, 0.044183403, 0.08141815, 0.06195169, -0.020798696, -0.014996229, -0.067658424, 0.010495425, 0.035303924, 0.136278, -0.0994619, 0.08938929, 0.03257266, -0.07119011, -0.009708697, 0.07770744, -0.015837245, 0.13522339, -0.0721579, -0.0567743, 0.0087752165, -0.024542851, 0.048908122, 0.010225122, 0.09639196, -0.07005483, -0.019188585, 0.11316087, -0.02440442, -0.038794287, 0.11356148, -0.09064978, -0.13106483, 0.07426777, -0.018732721, 0.12648642, 0.16141078, -0.09964949, 0.09829131, 0.01452834, -0.090285964, 0.044591703, 0.02189188, 0.12566642, 0.02358376, 0.1531479, -0.070375755, 0.02162864, -0.15716697, -0.03238532, -0.02525063, -0.068696044, 0.037359323, -0.10738846, -0.0011874213, 0.00239022, 0.05767383, 0.011547046, -0.06704476, 0.06417032, -0.038552344, -0.112682626, 0.06882974, -0.08770557, 0.09915365, -0.008934043, -0.061129984, 0.03716324, 0.031664975, -0.14591959, 0.033248354, -0.017331075, -0.04951438, -0.06257516, 0.036343206, 0.09439818, 0.09231634, -0.08682048, 0.09108819, 0.0787613, -0.074187055, 0.10069739, 0.05181005, 0.07570345, -0.052001998, -0.025643919, -0.040226728, -0.043826614, -0.019823087, -0.09926925, -0.10970371, -0.0030909171, -0.07270449, -0.13246171, 0.13105646, -0.041700203, -0.08197788, 0.056471497, 0.06088491, -0.048320778, -0.15839706, -0.12680082, 0.054228324, -0.06067444, -0.07493955, -0.10555874, 0.0628813, -0.025986662, 0.061212998, -0.0905496, -0.016276168, 0.11819937, -0.13809656, 0.07210104, -0.062201384, -0.06937635, 0.03115998, 0.026972635, -0.030112399, -0.0021316076, 0.08008346, -0.11256193, 0.09657379, -0.0939676, 0.12567897, -0.043325286, 0.077801414, 0.091416225, 0.12889498, 0.064315915, 0.081103995, 0.012162437, 0.11934622, -0.010449699, -0.08900576, -0.12133047, 0.07700744, -0.06381412, -0.06783186, 0.11920681, -0.026363598, -0.11349856, -0.121148705, -0.088145696, -0.0134122055, 0.007296328, -0.10003192, -0.050976496, 0.04867794, 0.06854177, -0.039735027, -0.09136082, -0.00802544, -0.04963615, -0.007897248, -0.065192565, 0.14801016, 0.027704515, -0.052803017, 0.0806532, 0.11387135, 0.047682147, 0.018865423, 0.11334088, -0.014200991, 0.08795423, -0.09882084, 0.040867925, 0.08239958, 0.12725656, 0.06867863, 0.015806591, 6.8839276e-05, -0.060073126, -0.04494387, 0.06721035, -0.096812785, 0.07101222, -0.07888509, 0.12906411, -0.012876574, 0.08927176, 0.027550478, 0.07216805, 0.03281282, 0.0939415, -0.08442646, 0.08095044, 0.018193344, 0.017931296, -0.022888068, 0.09993778, 0.0027011295, -0.07978943, -0.06373535, 0.06986795, -0.16403046, 0.003889283, -0.03812773, 0.02418148, -0.11617744, 0.070602, 0.0338568, 0.07784935, 0.037434775, 0.107204325, -0.0015375303, 0.123306125, 0.020221936, -0.007055975, -0.010505639, 0.0005660385, -0.0077972086, -0.11144782, -0.06103362, 0.12339141, 0.12649895, -0.0046343193, 0.005391567, 0.06464894, 0.049257204, -0.066343196, 0.11473718, -0.12447754, -0.11341353, -0.15654758, 0.0028870422, 0.10545013, 0.17901248, 0.099924505, 0.1753197, -0.10111403, -0.13298477, -0.036262225, -0.10272742, 0.07516455, -0.12240725, -0.012482997, 0.03576713, -0.059883486, -0.094506286, 0.16528128, -0.09590148, 0.10779289, -0.111789316, -0.106946744, 0.048704363, 0.06821018, -0.06820127, 0.10321007, 0.10084613, -0.081004046, 0.03694524, 0.060266554, 0.018320303, -0.08022576, 0.0055401092, -0.08235237, 0.11400436, 0.15850775, 0.0037190851, -0.13417183, -0.013417295, 0.016387882, -0.065651216, 0.012224462, 0.03369001, -0.015811585, 0.06271702, -0.009275903, 0.047057237, 0.09852264, 0.09090418, 0.060908712, 0.0069143674, 0.10190734, 0.08138939, -0.08055976, -0.084846854, 0.09476279, -0.12614751, -0.10506466, 0.031212797, 0.0152759245, 0.09207779, -0.041002452, 0.012939141, 0.012250646, -0.06396286, 0.078118876, -0.040114325, -0.11822261, -0.026551595, 0.05135425, -0.11294629, -0.036264267, 0.07510079, 0.008709297, -0.055073034, -0.051499665, -0.047215596, 0.0048473035, 0.013050051, 0.11917711, -0.13194428, 0.122035176, -0.13301477, -0.124954306, 0.029630832, -0.11836433, -0.17093869, -0.0442323, -0.04009488, -0.07638291, -0.047436938, 0.056895502, -0.09125734, -0.09623619, 0.0020168517, -0.107799254, 0.035739552, 0.05829344, 0.1141963, -0.014424136, 0.017021101, -0.013978212, 0.008646049, 0.029337589, 0.04678657, -0.05750437, 0.035501376, 0.06472157, 0.081376396, -0.07550012, 0.100189894, -0.1196213, -0.083645344, -0.0069209267, 0.117963724, 0.002971007, -0.033234417, 0.10538454, -0.04181249, 0.08114707, 0.08359181, -0.04848099, 0.014551629, -0.08188666, -0.0799602, -0.0027377296, 0.110746376, -0.08906455, -0.0061407215, 0.094623856, -0.09542879, -0.08394631, -0.06858284, 0.11187163, -0.04934047, -0.12662165, -0.030937374, 0.11791016, 0.09382621, -0.043217883, -0.063532196, -0.10544154, -0.094318435, 0.009360056, 0.0289336, 0.020193867, 0.0630957, -0.011154061, 0.020483427, 0.14995854, -0.098808065, -0.14887905, -0.13036714, -0.04538946, -0.06364354, -0.048304778, -0.05327367, 0.11574918, -0.10872954, -0.061156817, -0.063046806, 0.020820819, 0.05669483, 0.05214106, 0.05327947, -0.04571361, 0.020849746, 0.11306181, 0.025015712, 0.07885, -0.10201417, -0.062255345, 0.08930201, -0.06988671, 0.037959795, 0.10966435, 0.08018664, -0.0723746, 0.11826998, -0.13111164, -0.031018302, -0.055902954, -0.06943732, 0.005989951, -0.046530183, -0.032122284, -0.06267077, 0.014884642, 0.11014611, 0.012947379, -0.020073446, 0.030613424, -0.02024371, -0.07806372, 0.052518032, -0.057434995, 0.042348046, 0.09227188, -0.025351744, 0.14497083, 0.010888812, 0.08059343, -0.06914898, -0.11220098, 0.00036974176, 0.047065627, 0.1154196, 0.0072234506, -0.019227507, -0.009010453, -0.054190688, 0.08837143, -0.088514745, -0.0079634795, -0.10004681, 0.09752471, -0.05388593, -0.041730657, 0.031137966, -0.08232154, 0.047616508, -0.1088657, 0.08978378, 0.076184, -0.086705275, -0.011694016, -0.0050373203, -0.01967607, -0.04482636, 0.06517221, -0.040518526, 0.010145043, 0.12453212, 0.08247646, -0.060221855, -0.042966004, -0.05641241, -0.06913012, -0.020438027, -0.01777572, -0.024287438, -0.14718547, -0.027413521, 0.07558156, -0.029112138, 