const float w1[] = {0.45154735, 0.4070342, -0.018902749, 0.123647325, -0.18226802, -0.20166782, -0.06297129, -0.2969312, -0.303134, -0.18826245, -0.3041956, -0.24968168, -0.02956167, -0.088351466, 0.12503594, -0.1787119, -0.23715807, 0.11367597, 0.31768736, -0.23035142, 0.033250816, -0.24655941, -0.09495729, -0.23361054, -0.27523682, -0.11458594, -0.124889135, 0.13401845, 0.33973885, -0.2381996, 0.27687922, 0.12855755, -0.19060394, 0.21472102, -0.1841619, 0.016950093, 0.008943728, 0.1342919, -0.04517329, 0.13780281, 0.09925052, 0.01755684, 0.16872376, 0.2903347, -0.35206142, 0.2305401, 0.42222217, -0.1990476, 0.12437544, 0.4598112, -0.054349616, -0.16009772, -0.25598776, -0.18206196, -0.0046970383, -0.15264884, 0.16581799, 0.14024772, -0.10707239, 0.2021294, -0.30867535, -0.2633642, 0.17448121, 0.2869184, 0.14912973, -0.01368866, 0.16074419, 0.08352472, 0.062140286, 0.16272579, -0.1676143, -0.34511837, -0.29722202, -0.25713977, -0.15344433, 0.40462267, -0.30178675, 0.12927108, -0.07810903, 0.14181457, 0.2467784, 0.36398822, -0.013418211, -0.04725554, 0.346694, 0.2600173, 0.23339525, -0.3502848, -0.09879658, -0.0017000396, -0.22097361, 0.29065102, 0.06979071, 0.2801876, 0.021379769, -0.29635522, 0.2609325, -0.041880276, 0.08291938, -0.25507176, 0.40048304, -0.26659247, 0.03987413, 0.028755218, -0.03697253, -0.104526475, -0.08768984, 0.03723633, 0.10842501, 0.057878464, 0.29021823, -0.08552526, 0.32264188, 0.100054756, -0.30843836, 0.13381687, 0.20379695, -0.24156597, -0.31687936, 0.0028514229, 0.1087307, 0.41225997, 0.32857886, 0.17862284, -0.25858188, 0.05043942, -0.008467104, -0.08743946, 0.025882028, 0.02878491, 0.09321264, 0.065125115, 0.19199714, -0.2502369, 0.08296675, -0.14517184, -0.15443435, -0.062480375, 0.22656232, -0.05778559, -0.25104183, 0.33367088, 0.053373218, -0.08978326, -0.28543052, -0.21398939, -0.24821705, 0.057423044, 0.34446868, 0.28278822, -0.27602816, 0.22238788, 0.016150651, 0.17167623, -0.1599935, -0.16515248, -0.12977897, -0.012891633, 0.0036444708, 0.39245468, -0.17367312, -0.15915634, -0.04929949, 0.053461116, -0.07832315, 0.24862368, 0.08183991, 0.100933135, -0.17132778, 0.07022423, -0.008400489, 0.20373563, -0.04738958, 0.20404898, -0.21517484, 0.085429706, 0.23759067, 0.04089592, -0.018703304, 0.24581064, 0.28798008, -0.12546769, 0.07362351, -0.21545874, 0.040181037, -0.31138828, -0.028578062, 0.26148224, -0.24441512, -0.36870533, -0.23988372, -0.14793554, 0.16988984, 0.09093877, 0.16494834, -0.058774967, -0.046820447, 0.25179192, 0.12161539, 0.012605019, -0.20548642, 0.2657779, -0.11262645, 0.07704104, 0.2122524, -0.13413326, -0.2598058, 0.256691, -0.14360365, -0.18104194, 0.07766601, -0.26508808, -0.05001731, 0.18603243, -0.36785555, 0.16163029, 0.16191524, 0.067508906, 0.30187374, -0.33772328, 0.054870203, 0.0693064, 0.017738106, -0.14117496, 0.23973377, 0.12038256, -0.27617788, 0.104713015, 0.28861216, -0.0887256, 0.066061266, -0.036264993, 0.2906572, 0.13385518, 0.2614205, 0.030877657, 0.002073481, 0.21340707, 0.31490025, -0.38012457, 0.21536572, 0.35031962, 0.17753288, -0.33182362, -0.10679991, 0.1464472, -0.08790452, 0.17486718, 0.28799292, 0.037845653, -0.0035290003, 0.28152156, 0.20685963, 0.06342487, -0.15534034, 0.05900383, 0.37020245, 0.21161248, -0.13648544, 0.23717396, -0.05038386, -0.28186306, 0.22139995, 0.00087672635, -0.11373004, -0.13008377, 0.014935447, -0.32773235, -0.059288416, 0.0804214, 0.3427218, -0.060556937, -0.21663034, -0.1344908, -0.29939935, 0.37402946, -0.2660378, -0.12858658, -0.12182541, -0.019320631, 0.2919445, 0.34598064, 0.16207583, 0.09468048, 0.123224184, 0.086051375, 0.21572995, -0.109007284, 0.42238173, 0.2472146, 0.0314751, -0.013499463, 0.35071787, 0.09294918, 0.09968417, -0.26582402, -0.10764704, 0.17145486, 0.35634622, -0.33057624, -0.25053144, -0.32573396, 0.015797269, 0.36221236, 0.017450457, -0.044251706, 0.002585709, -0.24444278, 0.086819015, 0.108549826, 0.38105434, -0.3599345, 0.31034598, -0.290125, -0.095608324, 0.18949597, -0.17479523, -0.39431983, -0.19808885, -0.2704441, 0.15527768, 0.4159153, 0.1866765, 0.046618786, -0.2292078, -0.3231455, -0.31209722, -0.17150377, -0.14223658, 0.3252561, -0.11392811, 0.3325475, 0.33308783, -0.36391896, 0.15811725, -0.0039630993, -0.0009682638, 0.41040677, 0.23205125, -0.31352642, -0.26699436, -0.048125096, -0.19461732, -0.30933464, -0.20150886, -0.012952246, -0.22278734, -0.14376067, 0.2821686, -0.2884591, 0.17997849, 0.08597619, -0.25664032, 0.14602071, 0.16352959, -0.12457842, -0.21243377, -0.10734452, -0.0836279, -0.02952279, -0.26495618, 0.17188331, -0.3221106, -0.31109384, -0.10763374, -0.05357258, -0.27340895, 0.17270266, -0.2088718, 0.36058152, 0.32010034, -0.30136222, -0.038017973, 0.04521205, 0.1700293, 0.17771061, 0.13405856, -0.05416127, -0.351972, 0.151686, 0.35971132, -0.31578553, -0.24326934, -0.004044381, -0.3257741, -0.15165545, 0.28418177, 0.17049874, -0.1400295, 0.05725546, 0.28192776, -0.3494117, 0.083049074, -0.34488475, -0.09642462, -0.044054978, -0.28467575, 0.2456936, -0.2985185, 0.2740717, -0.34775242, -0.36060396, -0.3110642, 0.3348647, -0.12321373, -0.37137383, 0.0024332136, -0.047589082, -0.0017404717, 0.4025325, 0.014317481, -0.3125197, -0.051234666, -0.13252908, 0.25451362, 0.15384322, 0.4483284, 0.16545403, -0.34698445, 0.017627288, 0.13307987, 0.30622658, 0.3999224, 0.048716184, -0.29566133, -0.24149996, -0.29100776, 0.16506393, 0.016577492, 0.077164456, 0.16032082, -0.2732498, 0.34448346, -0.19818237, -0.014041257, 0.141422, 0.060677215, -0.2446789, -0.35211515, -0.0409313, 0.0096939225, 0.07787737, 0.31815055, -0.12065917, 0.1515629, -0.37819546, 0.2743409, 0.051019248, 0.27671745, -0.06807707, -0.13907777, 0.017327506, 0.41140118, -0.24976514, -0.37643474, 0.13580775, -0.29706505, 0.46824577, 0.29107746, 0.23527704, -0.34435084, -0.26802596, 0.09673904, 0.1162612, -0.22184446, -0.04935789, -0.14542434, 0.25384337, 0.37296534, -0.06647065, 0.23336568, -0.24448133, 0.24192382, 0.3264233, 0.2185561, -0.25106025, -0.18281761, -0.3061255, 0.2757871, 0.2353607, -0.30462915, -0.25091863, 0.38190836, 0.21958877, -0.13257669, 0.32460222, -0.12667286, -0.06887131, 0.3645955, 0.31938827, -0.071946636, 0.35024792, 0.38824308, 0.093981095, 0.24939859, 0.19483249, 0.3110696, -0.034294717, 0.35527325, -0.17562105, 0.27440953, -0.4073922, 0.16830851, -0.14968924, -0.27168545, 0.4262589, -0.24290685, 0.13140905, 0.06368946, -0.04901157, 0.050063405, 0.059926424};
